22 40
， 0.001114 0.005173 -0.003999 0.005484 -0.004791 -0.008321 0.016039 -0.012732 0.009767 0.006256 0.017308 -0.002390 -0.004804 -0.007537 0.009869 -0.000922 -0.007375 0.011520 -0.012714 -0.002557 0.003998 0.015583 0.016880 0.010427 -0.008498 0.009710 0.014135 -0.014340 0.002642 -0.008011 0.014906 -0.007323 -0.008008 -0.004358 0.006272 0.006709 -0.008565 -0.012170 -0.004791 -0.003695
我 0.001258 0.000904 -0.009270 -0.001818 -0.011349 0.003873 -0.001027 0.003688 -0.011493 -0.011746 0.019365 0.009494 0.007210 0.009110 0.003466 0.011915 0.002852 0.000671 0.006900 -0.010988 0.015294 0.011655 0.016855 -0.012818 0.004964 0.009878 0.017871 -0.014621 0.001115 -0.008840 -0.008037 0.001400 -0.000036 0.005300 -0.007308 0.010705 0.004516 -0.004618 0.010790 0.009829
的 -0.006617 0.012662 0.004374 0.008512 -0.007609 -0.006450 0.006135 -0.009576 0.006019 -0.006485 0.001561 0.006513 -0.000972 0.008392 0.005571 0.009768 -0.002755 -0.002991 -0.007405 0.007197 0.000738 0.012695 0.001711 0.000787 -0.003354 0.011639 0.007264 0.002949 -0.004790 0.004611 0.007515 -0.006316 -0.011464 0.012221 0.011317 -0.008280 0.007910 0.003904 0.004689 -0.008938
。 -0.000382 0.010738 -0.012343 0.003889 -0.006913 -0.001791 -0.003896 0.011807 -0.004650 0.010640 0.003203 0.009573 0.012007 0.000424 0.008487 -0.004528 -0.011471 0.000147 0.001774 0.003973 0.003370 0.006263 0.010499 -0.008513 -0.007411 -0.010467 0.002357 -0.007698 0.005530 -0.005155 0.002420 0.005119 -0.003253 -0.011876 -0.004064 -0.009621 -0.000408 0.009452 -0.009413 -0.012435
在 0.011715 0.011993 -0.008202 -0.005472 0.007955 -0.002850 -0.002812 0.002264 -0.009214 -0.002458 0.001687 -0.003856 -0.005350 -0.005176 -0.006652 0.011242 0.008073 0.010279 -0.002695 -0.011381 0.009366 0.001063 0.000061 -0.003097 0.008152 -0.010686 0.006515 -0.001327 0.003438 -0.001615 -0.000754 0.009224 -0.005063 0.001620 0.002858 -0.004220 0.011685 0.003735 0.010093 -0.006196
是 0.012033 -0.007552 -0.001033 -0.000479 -0.006722 0.005486 0.011904 -0.012304 -0.006955 -0.002233 0.011071 -0.006186 0.004743 -0.000651 -0.011762 0.001285 -0.007510 -0.007064 -0.004294 -0.008948 -0.000678 0.002462 0.006691 0.002491 0.003034 -0.000246 -0.007715 0.001544 -0.000713 -0.002272 -0.005904 0.005574 0.003791 0.008886 -0.002245 -0.006110 0.006062 0.002863 0.003692 0.008872
就 0.003074 0.012397 -0.009431 0.004388 -0.006205 0.003614 -0.005316 -0.009252 -0.006900 -0.003818 0.013665 0.005080 -0.003873 0.009277 0.002252 0.002559 0.010701 -0.007411 0.010114 0.006112 0.005999 0.005906 0.013675 0.010023 0.007609 0.011505 -0.009448 -0.003074 0.006656 0.006879 -0.002721 0.001422 -0.011606 0.001245 -0.001163 0.006357 -0.012339 0.002609 0.009538 -0.007914
很 0.012201 0.002981 -0.008995 0.010996 -0.008406 -0.007112 0.002527 -0.009740 -0.005447 0.003113 0.010956 0.006978 0.009861 0.002561 0.003402 0.006642 -0.000272 -0.003890 0.005460 0.002468 0.005000 -0.008874 0.016507 -0.002127 -0.003153 0.012653 -0.007703 0.001259 0.008251 -0.007928 0.007479 -0.003049 0.001199 0.005332 -0.007779 -0.010409 -0.007673 0.004950 0.004757 0.004915
不 -0.000444 0.002062 0.006475 0.004416 0.000994 0.007131 -0.001616 -0.011261 0.011104 0.005116 0.002357 0.006839 -0.008071 0.005800 0.001644 0.007561 -0.000901 -0.009460 -0.006510 -0.012302 0.000681 0.007050 0.007179 -0.010147 0.007964 0.002670 -0.003301 0.007348 0.009922 0.010054 0.008488 0.006645 -0.004875 -0.012409 -0.003841 0.000067 -0.008165 0.009228 0.009278 -0.002571
一 -0.001174 0.004604 -0.003466 0.006232 -0.002889 0.009430 0.003564 0.009208 -0.000339 -0.004645 0.006108 0.010580 0.004597 -0.004908 0.010182 0.006745 0.005504 -0.005238 -0.012352 -0.003575 0.012087 0.009593 0.009572 -0.000083 0.010077 -0.009819 0.000307 -0.003346 0.007302 -0.008096 0.009350 0.009352 -0.007304 0.011717 -0.001039 0.013005 -0.010369 -0.006234 -0.003414 -0.011362
厉害 -0.000932 0.008872 -0.002821 0.004324 0.000805 -0.006166 0.009809 -0.012502 -0.008073 -0.008933 0.014269 -0.007885 0.000878 0.010678 -0.003700 0.009526 -0.000209 0.000788 -0.006554 0.011167 -0.007529 -0.002769 -0.003113 0.010987 -0.005520 -0.008218 0.011281 0.009147 0.004756 -0.006671 0.011112 0.005398 -0.001922 -0.006353 -0.010131 0.011202 -0.001852 -0.004037 0.009844 0.005637
说 0.012340 -0.002316 0.000995 -0.007183 -0.009524 -0.011420 0.006899 0.008654 -0.012465 0.000530 -0.003337 -0.008706 0.008231 -0.000710 -0.011494 -0.006668 -0.004613 -0.006862 -0.007910 0.004365 0.001440 -0.000251 0.006230 0.002520 -0.002120 -0.009127 0.013096 0.006891 0.002298 0.002659 0.009543 0.007248 0.011453 0.009674 -0.009456 0.005377 -0.011902 -0.008490 -0.001035 0.002605
了 -0.007129 0.001920 0.002300 -0.000903 -0.009935 0.001500 -0.000612 -0.010504 0.001604 -0.010265 0.013380 0.008221 -0.004382 0.010640 -0.005510 0.006680 0.000971 -0.003632 -0.005468 -0.012654 -0.005524 0.010714 0.008850 -0.004540 -0.007581 -0.004641 0.015624 0.006159 0.006485 0.004535 0.003284 -0.008468 -0.004962 0.012842 0.001525 0.012144 0.005999 -0.006003 0.001783 -0.009720
都 -0.011490 0.001793 -0.002651 0.007308 -0.002646 -0.002161 -0.006834 0.000323 -0.009871 0.006606 0.011867 0.003797 -0.011450 -0.000248 -0.000411 0.003154 -0.007025 -0.005165 -0.006647 0.007874 -0.009780 0.003257 0.006586 0.008734 0.009974 -0.005829 -0.002570 0.002991 -0.007227 0.004570 0.010330 0.011714 0.003869 0.003547 -0.008662 0.004833 0.004952 0.010184 0.003296 0.008052
要 0.002725 0.000858 -0.001342 -0.008337 -0.001561 0.003669 0.011942 0.010482 0.011712 0.011934 0.002222 0.007390 -0.012082 0.010498 -0.007702 0.006490 -0.005487 -0.009181 0.001622 -0.010001 0.013428 0.005219 0.011830 -0.005372 -0.003173 -0.004578 0.009256 -0.005232 -0.006645 -0.004274 -0.010702 0.009814 0.000230 -0.007141 0.007813 -0.009863 0.006902 0.009134 0.000003 0.003769
看 0.010932 0.007894 -0.000897 0.003245 0.001179 0.003520 0.006921 -0.003494 0.009710 0.007808 0.010458 -0.007112 0.007306 -0.000287 0.012362 -0.002734 0.008379 0.012535 0.009849 -0.003411 -0.005163 -0.007857 0.008725 0.009845 0.006865 0.010326 0.011656 0.009757 -0.009164 0.007338 0.009582 -0.011411 -0.004940 -0.011482 -0.012428 0.011364 0.008843 -0.011627 -0.004518 -0.007830
玩 -0.004263 -0.004127 -0.007831 0.010034 0.003178 -0.005093 -0.005371 0.003429 0.012011 -0.001041 -0.003801 -0.007151 0.007421 0.007626 -0.009056 0.002597 -0.007832 0.007053 -0.011353 -0.004237 0.001799 -0.000014 0.009866 -0.011289 0.001291 -0.000627 0.009237 0.004203 -0.012178 -0.008688 0.005402 0.006392 0.012136 0.008962 -0.002177 0.009970 0.010955 0.009011 -0.002251 -0.002655
人 0.010442 0.002045 0.004651 0.009208 -0.000053 -0.002806 0.011927 -0.007045 -0.002643 0.004649 0.002801 0.011417 0.004257 0.005709 -0.010775 0.009745 0.007018 0.006428 0.009746 -0.012604 0.001935 0.009097 0.003767 0.000505 -0.002283 -0.009315 0.013903 -0.001210 -0.000583 0.008806 0.002483 -0.003714 0.004645 -0.010321 0.009480 -0.009760 -0.009347 0.012606 0.000656 0.001605
拍 0.008133 0.009412 -0.006824 0.012953 -0.001991 -0.005858 -0.001217 0.005828 -0.007077 0.005804 0.016607 -0.000651 0.002441 -0.011073 0.001236 0.007653 0.010125 0.007129 0.002785 0.007784 0.001690 0.005598 0.008246 0.002588 -0.010529 -0.003858 -0.005442 -0.009856 -0.008911 0.004379 -0.000926 0.003235 -0.002434 -0.002972 0.010027 -0.006662 -0.004044 0.004376 0.005431 0.003993
剑 0.008366 0.008547 0.004361 -0.006757 0.004175 0.010691 -0.011558 0.005582 -0.008771 -0.005103 0.011942 -0.005241 0.005954 0.004500 0.000600 0.006317 0.005854 -0.010996 -0.002340 0.001607 -0.003164 -0.005404 0.011911 0.002941 0.000558 0.008674 -0.007936 -0.001544 0.010961 -0.008863 0.003326 -0.000953 -0.009652 -0.007438 0.005338 -0.007620 0.007838 0.002647 0.011470 -0.010895
你 -0.009055 0.012892 -0.006542 0.011017 0.011230 0.009435 -0.005050 -0.011672 0.004079 0.004648 0.004323 0.003748 -0.010530 -0.010790 0.006967 0.002052 -0.004136 -0.001795 -0.010037 -0.011086 -0.005515 0.005824 -0.003512 -0.012186 -0.006886 -0.005627 0.012042 -0.001308 0.001216 -0.005510 0.000693 0.001152 -0.001652 0.001057 0.001293 0.008559 0.004410 0.009481 0.001880 -0.009940
这样 -0.003286 -0.009849 -0.012773 0.009357 -0.012171 -0.010360 0.008226 0.002294 0.006394 -0.011795 0.012405 0.004904 0.003785 0.004553 0.005246 0.002220 0.011632 -0.004359 -0.012199 0.003066 0.001092 -0.010872 0.000007 -0.007233 -0.007544 0.008696 0.006001 0.000581 -0.010048 -0.005633 0.003948 -0.010139 -0.000472 -0.005831 -0.010351 0.011928 -0.011623 0.007081 0.004624 0.000165
