131 40
， -0.048386 0.233690 -0.065659 0.013165 -0.154714 -0.000998 0.277041 -0.568848 -0.043905 0.123684 0.421756 0.277051 -0.124989 -0.334214 0.104168 -0.032998 0.027278 0.103660 -0.354471 -0.152904 -0.336186 0.086732 0.478954 -0.302811 0.119523 0.014561 0.227488 -0.138990 0.076763 0.072920 0.018543 0.005631 0.042184 -0.307371 -0.212061 0.417905 -0.055673 0.293752 0.189789 0.096963
的 -0.043638 0.213741 -0.045233 0.023212 -0.132770 0.004122 0.235029 -0.479939 -0.034522 0.099923 0.356580 0.252768 -0.097324 -0.265745 0.093043 -0.011116 0.033092 0.080172 -0.295635 -0.116637 -0.283539 0.079253 0.404898 -0.261326 0.110412 0.021351 0.197316 -0.098449 0.063151 0.078229 0.016594 0.013967 0.037884 -0.241865 -0.170651 0.348511 -0.029502 0.271620 0.176197 0.081899
你 -0.041243 0.166512 -0.047344 0.016536 -0.089853 0.013261 0.172498 -0.384512 -0.029503 0.084472 0.277760 0.190879 -0.089442 -0.227774 0.072456 -0.016622 0.019771 0.061453 -0.238666 -0.112514 -0.230899 0.055171 0.308254 -0.218106 0.079163 -0.000452 0.159361 -0.085363 0.052801 0.048555 0.005867 0.010004 0.031383 -0.202406 -0.143831 0.285194 -0.027332 0.215754 0.133040 0.057589
。 -0.026314 0.156814 -0.050297 0.011123 -0.099731 0.002442 0.164231 -0.332711 -0.035217 0.086404 0.259939 0.185249 -0.060822 -0.200553 0.071675 -0.021913 0.012962 0.059905 -0.211023 -0.088077 -0.206603 0.053469 0.303498 -0.201385 0.072849 -0.004179 0.139229 -0.084712 0.052788 0.043540 0.008403 0.013977 0.030727 -0.200053 -0.137805 0.248256 -0.028171 0.202240 0.114855 0.051776
我 -0.033939 0.150167 -0.053294 0.000668 -0.112585 0.006910 0.169290 -0.369229 -0.047565 0.066027 0.286539 0.192854 -0.075581 -0.209758 0.064297 -0.013929 0.025646 0.060580 -0.222934 -0.114409 -0.215139 0.057168 0.320806 -0.225625 0.088751 0.010909 0.158395 -0.099801 0.049163 0.043019 -0.009691 0.009177 0.035268 -0.198853 -0.154553 0.282361 -0.027327 0.197598 0.139146 0.073431
了 -0.033525 0.125193 -0.031029 0.002757 -0.091978 0.005118 0.141952 -0.312170 -0.026234 0.054237 0.232590 0.159444 -0.068984 -0.166634 0.046011 -0.011709 0.021231 0.047544 -0.191140 -0.093333 -0.190699 0.049130 0.258594 -0.174345 0.061711 -0.002336 0.131182 -0.061342 0.047151 0.048193 0.003800 0.000055 0.025082 -0.151117 -0.117675 0.234298 -0.019011 0.160453 0.108615 0.045957
不 -0.023335 0.119357 -0.026684 0.010287 -0.076859 0.009966 0.133896 -0.294815 -0.015107 0.065572 0.211433 0.150219 -0.069092 -0.160071 0.051965 -0.008000 0.018727 0.038439 -0.181291 -0.090084 -0.172913 0.044666 0.244768 -0.169972 0.073986 0.006026 0.107697 -0.055481 0.047867 0.050166 0.010916 0.014992 0.022656 -0.167489 -0.116541 0.209642 -0.031945 0.166011 0.109177 0.049365
要 -0.024773 0.134237 -0.037479 -0.002627 -0.089586 0.007829 0.164876 -0.313859 -0.017957 0.081002 0.239427 0.169831 -0.079814 -0.178940 0.049720 -0.010924 0.016765 0.044599 -0.197221 -0.098626 -0.185625 0.047426 0.283926 -0.187566 0.072631 0.000271 0.135013 -0.077895 0.037222 0.042156 -0.006924 0.019214 0.031290 -0.184584 -0.119506 0.230709 -0.020934 0.189465 0.114413 0.062912
就 -0.020298 0.124033 -0.039752 0.008047 -0.081964 0.007431 0.122529 -0.280145 -0.031126 0.053760 0.212587 0.142856 -0.061033 -0.148179 0.048472 -0.011764 0.028674 0.038556 -0.156293 -0.067934 -0.159423 0.042827 0.240893 -0.143085 0.069581 0.015200 0.096463 -0.065310 0.043835 0.045177 -0.000830 0.009463 0.013683 -0.146197 -0.107145 0.206256 -0.035331 0.153423 0.104847 0.040064
厉害 0.992229 1.066879 0.987075 1.007908 0.963808 1.006203 1.074814 0.857101 0.990833 1.036475 1.114316 1.079480 0.972630 0.919184 1.030588 0.997425 1.014398 1.029540 0.913352 0.963655 0.914972 1.024845 1.128364 0.921921 1.038493 1.006150 1.063597 0.971273 1.024606 1.025636 1.006619 1.009332 1.018441 0.924501 0.946749 1.114040 0.992029 1.086156 1.057044 1.030897
是 -0.019275 0.149993 -0.041649 0.007772 -0.108281 0.011446 0.190200 -0.386441 -0.040187 0.080058 0.288679 0.185634 -0.072361 -0.218736 0.055971 -0.017388 0.018865 0.056962 -0.235343 -0.109706 -0.229313 0.054263 0.322773 -0.207113 0.091576 0.005110 0.141387 -0.081531 0.052439 0.054107 0.000282 0.019040 0.040633 -0.195046 -0.147583 0.274360 -0.024510 0.213076 0.136857 0.078641
也 -0.009757 0.138429 -0.034447 0.009211 -0.078257 0.018589 0.150600 -0.322992 -0.037161 0.076856 0.241728 0.160795 -0.068629 -0.178102 0.060376 -0.001239 0.028639 0.068864 -0.188802 -0.089748 -0.206569 0.054313 0.271683 -0.186693 0.084062 0.002011 0.123466 -0.074219 0.034688 0.062813 0.013315 0.002672 0.047064 -0.179102 -0.120239 0.255564 -0.026816 0.180062 0.131686 0.054691
更 -0.018236 0.099390 -0.013746 0.001060 -0.064577 -0.005951 0.109574 -0.219039 -0.012990 0.039937 0.160230 0.117912 -0.058629 -0.135260 0.036088 0.001779 0.001798 0.035664 -0.143196 -0.048271 -0.141668 0.041764 0.193022 -0.112271 0.054414 0.014018 0.079599 -0.038880 0.029609 0.033563 0.008601 0.014603 0.023321 -0.109094 -0.086166 0.173210 -0.009034 0.120706 0.085330 0.036169
说 -0.005254 0.097828 -0.023421 -0.001087 -0.072836 -0.006806 0.122299 -0.226703 -0.030900 0.053475 0.172812 0.114304 -0.039970 -0.137253 0.032347 -0.017371 0.014518 0.035254 -0.151588 -0.057743 -0.142019 0.032848 0.207359 -0.129076 0.054883 -0.004168 0.107551 -0.043409 0.036465 0.039827 0.013754 0.016493 0.037026 -0.117836 -0.100742 0.182805 -0.030110 0.126528 0.084654 0.047774
一 -0.025293 0.126336 -0.036205 0.014709 -0.080259 0.014192 0.141153 -0.277980 -0.025033 0.058107 0.218946 0.157784 -0.055670 -0.171069 0.062953 -0.007866 0.026505 0.043325 -0.189756 -0.080133 -0.163406 0.048819 0.251563 -0.161018 0.077048 -0.004956 0.113664 -0.066786 0.048073 0.033749 0.012766 0.019147 0.021570 -0.144215 -0.113597 0.228565 -0.034369 0.154772 0.098867 0.040950
一个 -0.012922 0.080281 -0.020548 -0.001241 -0.043036 0.014132 0.095326 -0.210667 -0.015715 0.043311 0.152837 0.098723 -0.033740 -0.116624 0.038389 -0.017747 0.013007 0.025556 -0.134205 -0.049563 -0.119003 0.018029 0.182822 -0.108101 0.054827 0.014634 0.078636 -0.043139 0.017911 0.032564 0.004231 0.005598 0.010675 -0.118249 -0.080399 0.163517 -0.005384 0.107858 0.073790 0.036778
人 -0.009538 0.099936 -0.023360 0.015370 -0.066195 -0.000555 0.123469 -0.244205 -0.025129 0.055031 0.177427 0.130970 -0.045485 -0.131521 0.029528 -0.002212 0.023415 0.046927 -0.135348 -0.079034 -0.142576 0.040369 0.201793 -0.134547 0.051415 -0.007303 0.107135 -0.055296 0.031369 0.042792 0.001902 0.003590 0.028102 -0.137842 -0.083747 0.165546 -0.030018 0.144975 0.084112 0.044437
有 -0.014090 0.107393 -0.038772 0.021836 -0.065978 -0.003013 0.142327 -0.264358 -0.019585 0.063667 0.206608 0.137675 -0.059743 -0.163317 0.063184 -0.001611 0.023089 0.042787 -0.162953 -0.078615 -0.170984 0.045798 0.237094 -0.139665 0.068119 0.008640 0.116587 -0.053495 0.045759 0.036232 -0.004656 0.001647 0.018228 -0.136765 -0.114668 0.213535 -0.025763 0.147179 0.095282 0.063142
很 0.997964 1.011745 0.996963 1.001252 0.993477 1.000921 1.013795 0.972355 0.997847 1.006517 1.021031 1.014052 0.994317 0.984558 1.005385 0.999447 1.002215 1.004987 0.983403 0.992702 0.983666 1.003935 1.023512 0.984970 1.006881 1.001084 1.011343 0.994077 1.004331 1.004788 1.000806 1.001362 1.002747 0.985139 0.989669 1.020890 0.997783 1.015367 1.009972 1.005561
到 -0.029343 0.141301 -0.043925 0.021666 -0.070161 0.009389 0.148473 -0.312102 -0.036186 0.079688 0.234436 0.165593 -0.074005 -0.173455 0.065713 -0.017780 0.027429 0.065557 -0.194303 -0.089233 -0.192106 0.046712 0.266894 -0.185840 0.062304 -0.005503 0.136575 -0.060404 0.048505 0.043672 0.005369 0.019831 0.033286 -0.161092 -0.120837 0.225608 -0.035748 0.175600 0.105304 0.052335
在 -0.016639 0.152903 -0.045425 0.000631 -0.084535 0.001358 0.159661 -0.337008 -0.041132 0.070699 0.251974 0.168729 -0.078026 -0.204686 0.053404 -0.005262 0.030275 0.067054 -0.212630 -0.103728 -0.197421 0.047346 0.286085 -0.193094 0.086361 -0.005862 0.139943 -0.076214 0.049114 0.048002 0.003120 0.020202 0.027721 -0.182539 -0.130196 0.247959 -0.016550 0.192692 0.130588 0.057254
都 -0.031772 0.111456 -0.034565 0.013459 -0.075112 0.001321 0.116586 -0.260381 -0.034479 0.062636 0.207255 0.137701 -0.067752 -0.152217 0.046809 -0.011292 0.010750 0.038366 -0.168470 -0.063735 -0.168602 0.039768 0.227433 -0.139243 0.070801 -0.003471 0.099954 -0.055792 0.027824 0.041575 0.012898 0.020338 0.029706 -0.139427 -0.112201 0.198189 -0.016442 0.155607 0.096528 0.055048
最 -0.026835 0.071302 -0.021466 0.006450 -0.046801 0.011778 0.075806 -0.179378 -0.005894 0.034785 0.128369 0.082152 -0.050066 -0.110256 0.044158 -0.005486 0.019834 0.024494 -0.105097 -0.055484 -0.113983 0.015176 0.163343 -0.108037 0.048858 0.004667 0.075063 -0.048303 0.022323 0.037306 0.009691 0.009320 0.009723 -0.094923 -0.058702 0.139134 -0.025343 0.100618 0.052614 0.023194
会 -0.021790 0.087610 -0.025095 -0.000236 -0.053849 -0.003223 0.091298 -0.186285 -0.009631 0.032871 0.129758 0.085023 -0.031861 -0.106403 0.030176 -0.012520 0.008180 0.033492 -0.105997 -0.037210 -0.117628 0.039323 0.143966 -0.107404 0.055411 -0.004160 0.081759 -0.043283 0.022098 0.035107 0.000099 0.005638 0.018142 -0.099301 -0.082719 0.126081 -0.016068 0.103823 0.059812 0.026294
现在 -0.030377 0.121333 -0.035573 0.016899 -0.083665 -0.005877 0.135415 -0.279206 -0.029051 0.063374 0.200911 0.130074 -0.064895 -0.161806 0.055342 -0.022764 0.020453 0.044830 -0.168133 -0.076292 -0.160945 0.034795 0.213643 -0.160087 0.070449 0.004645 0.095781 -0.069327 0.045116 0.026412 0.014536 0.011007 0.025347 -0.154560 -0.115603 0.193103 -0.028450 0.144633 0.088186 0.048227
想 -0.030900 0.132418 -0.038607 0.020490 -0.093186 -0.004044 0.153637 -0.308554 -0.027702 0.069914 0.235693 0.169964 -0.071106 -0.176016 0.069414 -0.019801 0.029841 0.051354 -0.206302 -0.097609 -0.205762 0.053440 0.274035 -0.191764 0.076298 0.009675 0.135700 -0.065058 0.036429 0.056881 -0.004193 0.014908 0.041293 -0.166212 -0.118379 0.241893 -0.016843 0.183516 0.116163 0.057047
好 -0.017260 0.053144 -0.024125 0.000502 -0.029494 -0.009597 0.062821 -0.141306 -0.005363 0.022686 0.115273 0.079767 -0.034601 -0.089806 0.032782 -0.002974 0.015353 0.033903 -0.103098 -0.035486 -0.088612 0.009771 0.134766 -0.082894 0.026839 -0.001802 0.047187 -0.036886 0.008449 0.019512 -0.003881 -0.005574 0.005375 -0.078295 -0.059058 0.108403 -0.016175 0.081518 0.049131 0.019675
着 -0.013970 0.143346 -0.029785 -0.004599 -0.089693 0.005732 0.149375 -0.330590 -0.016843 0.059468 0.232477 0.150616 -0.065725 -0.182089 0.059536 -0.019975 0.023208 0.047550 -0.209063 -0.082227 -0.198184 0.045120 0.281942 -0.177679 0.082784 0.010468 0.133631 -0.072932 0.037353 0.038067 0.003881 0.001712 0.020898 -0.174794 -0.115950 0.248834 -0.038659 0.186816 0.113467 0.064615
学霸 -0.015286 0.146540 -0.046361 0.019901 -0.091928 0.010401 0.160107 -0.337534 -0.025740 0.070140 0.252524 0.161311 -0.084459 -0.179648 0.067461 -0.019784 0.023480 0.063139 -0.195855 -0.099774 -0.200283 0.044423 0.283327 -0.173495 0.073141 0.013913 0.134308 -0.078025 0.044381 0.038355 0.003960 0.004853 0.041409 -0.183166 -0.126399 0.244100 -0.033741 0.188866 0.104897 0.067850
成为 -0.013913 0.119039 -0.030830 0.010713 -0.078487 0.014162 0.152465 -0.286545 -0.034794 0.065955 0.229797 0.163487 -0.065792 -0.180411 0.060688 -0.013527 0.014851 0.051750 -0.181569 -0.082368 -0.191398 0.033621 0.260751 -0.162427 0.069648 0.015162 0.124450 -0.063936 0.040184 0.046568 -0.004836 0.014942 0.035737 -0.161869 -0.116911 0.221270 -0.037448 0.158665 0.103601 0.064296
他 -0.026436 0.089145 -0.024394 0.001759 -0.054447 0.010650 0.103634 -0.222593 -0.026080 0.038412 0.159138 0.108450 -0.053704 -0.129648 0.033051 -0.001647 0.015243 0.047625 -0.135012 -0.053187 -0.125173 0.039960 0.185928 -0.128110 0.058765 -0.008536 0.076148 -0.040523 0.030820 0.020184 0.014264 0.017649 0.019720 -0.128832 -0.084647 0.172943 -0.018914 0.110757 0.084783 0.049024
再 -0.030314 0.117374 -0.021903 0.011376 -0.075043 0.002904 0.130547 -0.289341 -0.032900 0.049401 0.216440 0.130353 -0.059650 -0.151891 0.054708 -0.013231 0.027481 0.049002 -0.173841 -0.068374 -0.164940 0.028531 0.228574 -0.147769 0.074767 -0.001771 0.106673 -0.062522 0.048697 0.038861 -0.005498 0.015103 0.037295 -0.143647 -0.115332 0.207304 -0.020569 0.165457 0.105015 0.052255
说话 -0.009639 0.073395 -0.008657 -0.002515 -0.046828 -0.002430 0.070968 -0.165087 -0.011776 0.028492 0.117717 0.083997 -0.023789 -0.108528 0.026060 -0.019712 0.008337 0.016153 -0.093828 -0.047699 -0.111570 0.014443 0.141350 -0.085169 0.050928 0.012258 0.069812 -0.040401 0.025281 0.012595 0.013933 -0.003928 0.009673 -0.103639 -0.059103 0.123964 -0.005404 0.101571 0.062978 0.032558
漂亮 -0.012435 0.099994 -0.015995 -0.002290 -0.057960 0.002340 0.111024 -0.226472 -0.027823 0.049976 0.172867 0.108944 -0.051034 -0.133217 0.033969 -0.008244 0.022295 0.038200 -0.139571 -0.053933 -0.142032 0.031322 0.192054 -0.127630 0.038264 0.015856 0.079704 -0.043168 0.025709 0.037298 0.005478 0.015225 0.025834 -0.128842 -0.094586 0.152229 -0.022858 0.121023 0.064797 0.045248
这 -0.012473 0.099427 -0.023855 0.010355 -0.063421 0.001789 0.093472 -0.228313 -0.011410 0.045036 0.159823 0.100664 -0.044153 -0.130603 0.043794 -0.004758 0.016959 0.040593 -0.138596 -0.065712 -0.137520 0.031284 0.177124 -0.129572 0.046907 0.013529 0.094065 -0.059238 0.042249 0.037461 0.006727 0.009183 0.015691 -0.120103 -0.096203 0.155902 -0.020221 0.129425 0.065686 0.034584
越 -0.018352 0.084922 -0.035337 -0.000673 -0.058990 -0.002944 0.100573 -0.199122 -0.009769 0.052277 0.147990 0.098301 -0.034041 -0.110532 0.042727 -0.012093 0.023576 0.036145 -0.126180 -0.048566 -0.125933 0.038858 0.177847 -0.112005 0.051425 -0.003634 0.070153 -0.052547 0.025503 0.027447 0.004551 0.010246 0.029735 -0.121368 -0.083019 0.150309 -0.028855 0.104934 0.084464 0.039411
有趣 -0.028419 0.124366 -0.031406 0.013988 -0.076443 0.006346 0.140132 -0.261621 -0.027791 0.067499 0.188338 0.141068 -0.063489 -0.160070 0.051006 -0.024601 0.021706 0.040015 -0.165863 -0.067872 -0.155874 0.039262 0.220137 -0.141065 0.066499 -0.007122 0.097173 -0.060509 0.027695 0.035380 0.007966 0.007354 0.036554 -0.134078 -0.092882 0.208658 -0.011933 0.141901 0.095748 0.057471
能 -0.016964 0.098597 -0.026818 -0.002711 -0.075317 -0.003743 0.098360 -0.219414 -0.028583 0.037420 0.160012 0.123654 -0.038601 -0.138372 0.031291 -0.010911 0.005945 0.039245 -0.143476 -0.074294 -0.131788 0.028842 0.190330 -0.124422 0.046402 -0.001698 0.093742 -0.050005 0.041465 0.028324 -0.008581 0.012711 0.022493 -0.124700 -0.089340 0.176796 -0.019231 0.129646 0.084070 0.037831
故事 -0.021443 0.126838 -0.037028 -0.006473 -0.090975 -0.007629 0.141395 -0.326255 -0.019162 0.066089 0.232662 0.156364 -0.062546 -0.185911 0.068839 -0.026766 0.011631 0.041942 -0.206656 -0.090020 -0.204179 0.047422 0.280409 -0.172440 0.081095 -0.003745 0.132792 -0.062775 0.049345 0.050474 0.013457 0.016778 0.017606 -0.169110 -0.122022 0.237270 -0.025848 0.186448 0.110928 0.042876
上 -0.004326 0.088712 -0.022595 -0.004652 -0.043800 0.005034 0.094910 -0.178805 -0.014124 0.041706 0.146556 0.100502 -0.046593 -0.109286 0.030790 -0.014103 0.020947 0.031593 -0.112324 -0.043199 -0.107914 0.037269 0.162442 -0.108005 0.045262 0.014392 0.065835 -0.036129 0.019339 0.031481 -0.005308 0.002714 0.026240 -0.086368 -0.077289 0.144622 -0.007643 0.088126 0.076026 0.033151
做 -0.019925 0.083873 -0.017974 0.001943 -0.043093 -0.001212 0.081172 -0.158157 -0.011919 0.041240 0.123342 0.089297 -0.033919 -0.102560 0.025646 0.002496 0.006210 0.016880 -0.093623 -0.055726 -0.112184 0.021987 0.154017 -0.095459 0.041781 -0.007348 0.057147 -0.046331 0.019864 0.014321 -0.003043 0.006683 0.016475 -0.079071 -0.055849 0.130104 -0.021490 0.093983 0.054046 0.032892
很多 -0.006253 0.076310 -0.014737 0.006726 -0.065459 0.000240 0.105544 -0.206239 -0.020345 0.052430 0.155141 0.100735 -0.049000 -0.115671 0.036963 -0.007363 0.013405 0.039149 -0.136089 -0.056517 -0.124931 0.015966 0.179314 -0.124733 0.048942 0.005970 0.069465 -0.040427 0.021119 0.022909 -0.004283 -0.002740 0.026833 -0.123283 -0.069640 0.157352 -0.007606 0.107293 0.072779 0.043999
看 -0.004907 0.102679 -0.022548 0.009794 -0.055895 0.007625 0.114522 -0.224063 -0.008743 0.057180 0.175388 0.106760 -0.039242 -0.129214 0.053721 -0.012878 0.024764 0.051625 -0.125869 -0.063118 -0.138493 0.024508 0.196917 -0.112530 0.060752 0.014658 0.102013 -0.036858 0.022892 0.040846 0.014917 -0.003207 0.016374 -0.130953 -0.097748 0.178156 -0.007689 0.114166 0.075894 0.034697
热血 -0.029118 0.120411 -0.018607 0.001527 -0.083029 0.015342 0.134301 -0.284071 -0.017730 0.067089 0.207703 0.158107 -0.060823 -0.167491 0.050195 -0.018876 0.025713 0.060234 -0.168460 -0.067341 -0.157220 0.046269 0.233064 -0.162176 0.061519 0.006156 0.103801 -0.058412 0.034846 0.040641 0.009316 0.012347 0.027214 -0.143313 -0.115451 0.209811 -0.014246 0.171597 0.107786 0.063235
什么 -0.007859 0.095180 -0.032564 -0.004665 -0.055938 0.010902 0.106478 -0.242568 -0.028389 0.056060 0.188510 0.122914 -0.055886 -0.145901 0.038777 -0.016054 0.012285 0.041425 -0.152898 -0.057410 -0.136078 0.028431 0.213397 -0.136998 0.066563 0.000680 0.085224 -0.065922 0.042890 0.032555 -0.004763 0.008669 0.025635 -0.140886 -0.087654 0.173205 -0.015609 0.143289 0.079571 0.045435
方法 -0.005548 0.086049 -0.033032 -0.007906 -0.060239 0.000511 0.088343 -0.192515 -0.012084 0.047905 0.151792 0.099313 -0.054215 -0.105406 0.024656 -0.005665 0.017817 0.040106 -0.128124 -0.062272 -0.118205 0.034379 0.153921 -0.100778 0.037328 0.007912 0.085531 -0.033635 0.014623 0.017995 0.009322 -0.001078 0.013427 -0.118180 -0.071849 0.148966 -0.014353 0.096767 0.065859 0.044232
见 -0.022745 0.046761 -0.029591 -0.008287 -0.031342 -0.011254 0.075023 -0.130870 -0.011852 0.041492 0.113359 0.074087 -0.026273 -0.092677 0.037564 -0.004183 0.002095 0.030357 -0.081112 -0.051452 -0.095892 0.023584 0.113482 -0.075019 0.043169 0.011185 0.061836 -0.032184 0.008059 0.008110 -0.011735 0.008624 0.025525 -0.084453 -0.056097 0.097495 -0.000569 0.066740 0.054193 0.022212
和 -0.011093 0.081592 -0.024440 0.010614 -0.044898 0.014197 0.082427 -0.201991 -0.020499 0.053168 0.145584 0.094819 -0.038922 -0.124211 0.038470 -0.005517 0.002515 0.028404 -0.111450 -0.047829 -0.130318 0.033568 0.170177 -0.110698 0.049225 0.012047 0.071528 -0.039110 0.031073 0.029651 0.007492 0.017238 0.029285 -0.103698 -0.079452 0.152837 -0.018552 0.118016 0.080184 0.045647
小 0.000805 0.048230 -0.008607 0.012142 -0.034572 -0.006421 0.059735 -0.106761 -0.018493 0.032877 0.073585 0.065523 -0.016004 -0.057979 0.023148 -0.013250 0.011801 0.021366 -0.055842 -0.017669 -0.070901 0.019767 0.092972 -0.055393 0.017572 0.009609 0.039231 -0.031501 0.006972 0.012062 -0.002698 0.003825 0.006976 -0.071444 -0.046702 0.068335 -0.007216 0.061066 0.040583 0.031568
非常 -0.025641 0.124518 -0.036439 0.002205 -0.074567 0.003835 0.123893 -0.269192 -0.031144 0.064570 0.206390 0.149851 -0.065120 -0.149717 0.050594 -0.025949 0.004895 0.058337 -0.163373 -0.079316 -0.177962 0.025870 0.218853 -0.139249 0.056298 -0.004590 0.110339 -0.061431 0.039322 0.051023 -0.000080 0.001789 0.016192 -0.159737 -0.102870 0.208804 -0.025181 0.146628 0.097145 0.054075
吧 -0.032569 0.129387 -0.034115 -0.002518 -0.071847 -0.002529 0.139124 -0.296653 -0.033519 0.069553 0.218094 0.135597 -0.063413 -0.165482 0.037554 -0.005681 0.011087 0.052795 -0.186550 -0.071809 -0.165370 0.039427 0.235210 -0.161544 0.064571 0.005628 0.124231 -0.070849 0.047031 0.033684 -0.007361 -0.000727 0.029851 -0.148098 -0.113388 0.205389 -0.029779 0.168870 0.111458 0.055606
自己 -0.011244 0.154971 -0.034397 0.010160 -0.097269 0.011424 0.157592 -0.348269 -0.017397 0.073390 0.255533 0.178677 -0.061041 -0.181775 0.057434 -0.012907 0.017180 0.070090 -0.208993 -0.099812 -0.211556 0.059268 0.291047 -0.175979 0.087157 0.002037 0.150154 -0.063886 0.047104 0.049755 0.019425 0.020344 0.043700 -0.176296 -0.138037 0.263327 -0.017587 0.203554 0.123694 0.077677
来 -0.006783 0.098032 -0.030496 0.001260 -0.063232 0.016268 0.094311 -0.204417 -0.010493 0.041022 0.143318 0.100384 -0.049502 -0.112127 0.036181 -0.010466 0.003217 0.031463 -0.121037 -0.063099 -0.132747 0.035256 0.187368 -0.119890 0.050633 0.016351 0.083749 -0.050704 0.032471 0.032233 -0.005084 0.016556 0.022874 -0.112685 -0.081290 0.157134 -0.019900 0.117368 0.079541 0.030477
时 -0.021446 0.128630 -0.032181 0.019234 -0.078414 -0.005684 0.133726 -0.305633 -0.023449 0.060876 0.211341 0.160835 -0.067514 -0.162548 0.060475 -0.015735 0.017153 0.052374 -0.196550 -0.071971 -0.175769 0.044977 0.240525 -0.154883 0.078303 -0.006971 0.111906 -0.076339 0.037814 0.052699 0.015766 0.010427 0.038988 -0.154985 -0.126869 0.219794 -0.015671 0.164183 0.105177 0.048676
得 -0.022453 0.072408 -0.010288 -0.004156 -0.056572 0.007215 0.084024 -0.166076 -0.018130 0.027537 0.109907 0.077207 -0.044577 -0.092938 0.017632 0.003128 0.005899 0.022417 -0.094454 -0.046499 -0.089793 0.032535 0.148131 -0.090962 0.047731 0.010178 0.075673 -0.039464 0.028218 0.017234 -0.008923 0.013443 0.008307 -0.084153 -0.063128 0.108969 -0.013309 0.089423 0.046138 0.034890
少年 -0.015057 0.085843 -0.021859 -0.005533 -0.052283 0.014693 0.123436 -0.218644 -0.016633 0.047687 0.160548 0.107626 -0.048575 -0.136188 0.052991 -0.017478 0.020432 0.043857 -0.137033 -0.051939 -0.140206 0.030054 0.207679 -0.124140 0.057490 0.011809 0.087161 -0.043052 0.029051 0.033381 0.006978 0.014590 0.018485 -0.132924 -0.096236 0.164043 -0.009899 0.132736 0.094443 0.044740
励 -0.014496 0.115303 -0.034588 -0.000584 -0.083318 -0.001362 0.115817 -0.252846 -0.020508 0.049629 0.185538 0.141777 -0.064717 -0.160272 0.047409 -0.025855 0.022000 0.046222 -0.168883 -0.064540 -0.166001 0.038705 0.228333 -0.155012 0.059081 0.004104 0.091393 -0.047845 0.023411 0.039821 0.002116 0.010166 0.022572 -0.139947 -0.094783 0.202781 -0.018422 0.149765 0.091537 0.040051
点 -0.023206 0.093799 -0.018445 0.016788 -0.056358 0.004121 0.110159 -0.198144 -0.014151 0.032889 0.145156 0.109101 -0.032698 -0.118384 0.024999 0.001078 0.004175 0.027274 -0.116987 -0.051583 -0.120417 0.021032 0.164051 -0.115703 0.046960 -0.003782 0.086800 -0.044164 0.032554 0.036859 -0.008060 0.016264 0.018392 -0.109823 -0.077424 0.161088 -0.021343 0.113361 0.084316 0.042218
心 -0.022811 0.078933 -0.009453 0.007517 -0.055317 0.012790 0.092241 -0.170368 -0.025510 0.051479 0.131730 0.090862 -0.047865 -0.095422 0.022045 -0.011710 0.003845 0.021570 -0.117660 -0.046013 -0.116088 0.018489 0.150671 -0.090109 0.051762 -0.004908 0.071562 -0.049983 0.027572 0.027001 0.001685 0.006141 0.011531 -0.104919 -0.061435 0.139705 -0.013667 0.088864 0.074812 0.033343
承诺 -0.009907 0.068677 -0.028387 -0.001427 -0.051353 -0.007557 0.098442 -0.193891 -0.004857 0.050390 0.145293 0.092130 -0.044627 -0.107150 0.034788 -0.007401 0.021118 0.026522 -0.122813 -0.045440 -0.112539 0.027935 0.167863 -0.115028 0.043459 -0.005983 0.086525 -0.034499 0.025367 0.031167 -0.004517 0.012336 0.010877 -0.101783 -0.073211 0.140672 -0.004858 0.097841 0.061515 0.039418
读书 -0.027087 0.110070 -0.036143 0.011776 -0.063610 -0.007825 0.116633 -0.275800 -0.011680 0.052130 0.193980 0.134831 -0.055419 -0.154211 0.038520 -0.014787 0.016901 0.034189 -0.168964 -0.075216 -0.149657 0.037037 0.217641 -0.154813 0.072296 0.002928 0.102634 -0.054645 0.034884 0.040204 0.012046 0.005174 0.013239 -0.145742 -0.097750 0.201119 -0.022856 0.147044 0.104890 0.041326
逼 -0.015231 0.073035 -0.032586 0.016235 -0.049995 0.008546 0.070957 -0.183874 -0.013782 0.041327 0.137835 0.079222 -0.031738 -0.095028 0.025416 0.002076 0.007426 0.032243 -0.101261 -0.059217 -0.109852 0.028604 0.157483 -0.109048 0.027779 0.009890 0.070909 -0.042786 0.034858 0.029710 -0.008204 0.015544 0.007340 -0.089350 -0.075759 0.139915 -0.005748 0.100070 0.073820 0.023352
这样 -0.025420 0.133723 -0.047828 0.019867 -0.099024 -0.003211 0.169483 -0.324323 -0.021010 0.061341 0.261048 0.175332 -0.064718 -0.184043 0.066404 -0.011521 0.037032 0.055641 -0.212521 -0.085443 -0.197495 0.038938 0.282039 -0.190896 0.072171 0.016691 0.140762 -0.070824 0.038733 0.043595 0.009451 0.002639 0.036315 -0.180463 -0.136029 0.261828 -0.034853 0.194424 0.126373 0.063114
志书 -0.018299 0.104643 -0.034576 0.003340 -0.068515 0.012014 0.107448 -0.240319 -0.032814 0.056878 0.193784 0.138167 -0.046682 -0.150316 0.039338 -0.019865 0.023811 0.030899 -0.163388 -0.076638 -0.152426 0.044961 0.206314 -0.132190 0.064849 -0.009206 0.094979 -0.054897 0.044316 0.041505 0.008006 0.018881 0.030014 -0.141841 -0.107885 0.171789 -0.011992 0.131089 0.083437 0.037825
生活 -0.020585 0.090599 -0.017842 0.002166 -0.056749 0.006736 0.103013 -0.219164 -0.011281 0.057553 0.158922 0.105784 -0.035713 -0.125669 0.034555 -0.008719 0.027722 0.031306 -0.137621 -0.070945 -0.132699 0.021432 0.174206 -0.120505 0.042210 -0.000890 0.086408 -0.040584 0.028830 0.026990 -0.009271 0.006410 0.030176 -0.104511 -0.086088 0.172466 -0.020356 0.126249 0.074254 0.034162
失约 -0.021736 0.068172 -0.012477 -0.003126 -0.046645 -0.001995 0.081377 -0.160231 -0.022723 0.033710 0.122476 0.086440 -0.023805 -0.106901 0.018663 -0.006284 0.001088 0.029304 -0.102305 -0.055355 -0.096320 0.026164 0.149514 -0.091104 0.036710 0.014681 0.070138 -0.045227 0.023716 0.017167 0.009625 -0.000255 0.009352 -0.092043 -0.063433 0.131343 -0.004178 0.081362 0.057345 0.031708
从 -0.022451 0.116002 -0.030151 0.009611 -0.077137 -0.004998 0.150255 -0.299675 -0.021117 0.062943 0.216877 0.159392 -0.066786 -0.159457 0.058597 -0.019791 0.027967 0.049884 -0.194366 -0.067975 -0.166329 0.045990 0.247934 -0.157537 0.073522 0.002623 0.117370 -0.059493 0.041388 0.043389 0.011698 0.015485 0.037772 -0.157623 -0.107534 0.219094 -0.011236 0.154322 0.105354 0.042249
这些 -0.017144 0.100148 -0.035047 -0.003973 -0.057898 0.005335 0.095568 -0.220387 -0.008862 0.045441 0.157642 0.109435 -0.053836 -0.125093 0.033202 -0.019021 0.017025 0.040405 -0.134177 -0.058467 -0.131572 0.024036 0.186279 -0.132574 0.061219 0.007960 0.096979 -0.057597 0.019686 0.023792 0.005394 -0.005709 0.015441 -0.108444 -0.078827 0.159903 -0.019608 0.120299 0.066666 0.042532
还 -0.013129 0.074373 -0.023886 -0.005871 -0.048258 0.007651 0.074502 -0.166705 -0.012163 0.045164 0.125226 0.079081 -0.029485 -0.081425 0.042886 -0.002218 0.006665 0.016757 -0.097186 -0.030925 -0.094780 0.034226 0.124263 -0.081670 0.031238 0.003639 0.058189 -0.029369 0.027020 0.021669 0.015801 0.014714 0.022210 -0.083095 -0.051395 0.124543 -0.019493 0.081646 0.061513 0.032162
人群 0.000007 0.063775 -0.018567 0.000786 -0.044939 -0.004451 0.078369 -0.147849 -0.003825 0.019163 0.102455 0.060372 -0.030104 -0.081199 0.027368 -0.000124 0.019002 0.021289 -0.094834 -0.037869 -0.094547 0.012421 0.109131 -0.080456 0.038836 -0.002353 0.055902 -0.020119 0.031272 0.023657 0.009397 -0.004999 0.001332 -0.073451 -0.047793 0.102327 -0.006121 0.069892 0.038122 0.023892
写 -0.014904 0.076126 -0.035381 -0.007836 -0.047562 0.011468 0.100157 -0.198754 -0.027609 0.032062 0.148054 0.103609 -0.047603 -0.125363 0.031870 -0.011432 0.018689 0.026908 -0.123236 -0.043613 -0.109148 0.025674 0.175218 -0.109925 0.037508 0.008155 0.073761 -0.040721 0.015684 0.035738 0.005303 -0.002625 0.021904 -0.095520 -0.081953 0.134311 -0.022850 0.110520 0.081892 0.036852
觉得 -0.015326 0.115940 -0.041679 0.019953 -0.077171 -0.000915 0.139960 -0.292736 -0.036353 0.049753 0.204491 0.137073 -0.071775 -0.173720 0.061380 -0.008010 0.011631 0.050708 -0.176533 -0.069967 -0.181800 0.046730 0.243870 -0.160243 0.069876 0.015946 0.114630 -0.069644 0.048892 0.046240 -0.001019 0.016412 0.031767 -0.144069 -0.110911 0.215842 -0.033104 0.168160 0.100537 0.053228
那些 -0.009672 0.071064 -0.012941 0.007473 -0.061847 -0.002744 0.086843 -0.192428 -0.010793 0.030120 0.148346 0.101368 -0.028331 -0.110325 0.037054 0.001549 0.011742 0.028212 -0.106693 -0.061018 -0.107655 0.023861 0.158163 -0.101781 0.053055 -0.007956 0.085011 -0.045045 0.024549 0.024644 0.003375 0.004843 0.011625 -0.109688 -0.071543 0.131481 -0.025920 0.114544 0.071754 0.035943
痛苦 -0.026959 0.094595 -0.036477 -0.006091 -0.073334 0.003143 0.116616 -0.240298 -0.012445 0.056112 0.183732 0.125258 -0.043558 -0.138952 0.049036 -0.019663 0.003771 0.050940 -0.161111 -0.068498 -0.155433 0.025985 0.219972 -0.134196 0.068541 0.005992 0.096696 -0.062018 0.038995 0.035154 0.000543 0.015315 0.011901 -0.123524 -0.091747 0.179690 -0.010572 0.131929 0.099184 0.037510
希望 -0.004502 0.061540 -0.030779 0.008361 -0.048598 0.000594 0.085464 -0.164707 -0.008266 0.034827 0.125012 0.087765 -0.041103 -0.106506 0.024563 -0.008515 0.018493 0.033117 -0.092372 -0.054991 -0.108495 0.013383 0.130250 -0.092709 0.035339 -0.001979 0.066283 -0.041340 0.013264 0.015152 -0.008352 -0.001030 0.021122 -0.092497 -0.059818 0.111347 -0.015669 0.099573 0.053871 0.017284
逊 -0.027535 0.104631 -0.022702 0.015815 -0.066469 0.006932 0.118999 -0.261682 -0.025914 0.053739 0.192126 0.139272 -0.062871 -0.154132 0.038712 0.000565 0.029767 0.055432 -0.145954 -0.074422 -0.156648 0.031134 0.217723 -0.152992 0.051746 0.004904 0.104882 -0.060415 0.034181 0.030220 0.003608 0.000380 0.036246 -0.142838 -0.093015 0.198583 -0.024460 0.154714 0.089574 0.046614
但 -0.007810 0.096544 -0.022567 0.003240 -0.053730 -0.008076 0.095806 -0.218644 -0.012434 0.036378 0.159877 0.108438 -0.043075 -0.133061 0.048468 -0.020596 0.017004 0.027858 -0.128641 -0.062513 -0.144315 0.034087 0.186295 -0.125097 0.055427 0.001683 0.077604 -0.039399 0.020371 0.021335 -0.002272 -0.005708 0.018843 -0.120674 -0.084853 0.166388 -0.025589 0.126759 0.073226 0.033262
稍微 -0.024880 0.067818 -0.022057 0.010723 -0.040857 0.001193 0.075265 -0.189056 -0.005289 0.047639 0.130346 0.104619 -0.032285 -0.097874 0.040716 -0.013988 0.006956 0.024586 -0.117690 -0.042188 -0.113444 0.034623 0.149163 -0.091518 0.043623 -0.008917 0.083099 -0.042951 0.011340 0.029748 -0.007729 0.015069 0.018716 -0.088363 -0.071191 0.137773 -0.018911 0.108454 0.060024 0.028927
像 -0.010930 0.074206 -0.023746 0.002779 -0.056706 0.008034 0.093022 -0.187627 -0.014720 0.045586 0.141954 0.101555 -0.044868 -0.120268 0.036808 -0.015846 0.022598 0.022956 -0.126042 -0.050249 -0.114399 0.013587 0.165801 -0.111650 0.031267 0.009180 0.069287 -0.031836 0.024429 0.036111 0.009922 0.000737 0.030719 -0.112941 -0.076624 0.140966 -0.013754 0.101634 0.065189 0.027776
这个 -0.009173 0.045623 -0.023733 -0.009170 -0.033779 -0.007048 0.050023 -0.128602 -0.011376 0.028108 0.092031 0.065908 -0.027333 -0.061356 0.010964 0.001424 0.001751 0.013215 -0.086277 -0.029089 -0.064327 0.021186 0.094323 -0.068998 0.029419 -0.002262 0.049385 -0.020003 0.027444 0.026851 0.007353 0.014976 0.008414 -0.064119 -0.038123 0.084550 -0.000157 0.066185 0.041015 0.016356
塔 -0.029809 0.127075 -0.018635 0.019264 -0.081409 -0.003100 0.126196 -0.276783 -0.031897 0.064010 0.215556 0.143845 -0.063064 -0.170785 0.044985 -0.014463 0.011160 0.047763 -0.177962 -0.076173 -0.153714 0.040243 0.239834 -0.143301 0.056184 0.012078 0.107092 -0.066803 0.037179 0.042963 0.012717 0.017383 0.031174 -0.141386 -0.110556 0.211279 -0.033615 0.143797 0.104241 0.044122
句 -0.022680 0.102779 -0.028170 0.012402 -0.075256 0.013912 0.107413 -0.233423 -0.020446 0.044248 0.188771 0.112588 -0.051829 -0.134247 0.052031 -0.023758 0.014580 0.034498 -0.153416 -0.068582 -0.136375 0.035539 0.197483 -0.146658 0.065398 0.002156 0.105403 -0.054190 0.045108 0.024466 0.003510 0.015740 0.033148 -0.138879 -0.098149 0.179878 -0.031209 0.141403 0.080618 0.031473
话 -0.021946 0.083007 -0.014329 -0.004166 -0.048304 0.006332 0.087515 -0.201986 -0.028337 0.050583 0.148663 0.111390 -0.042179 -0.116328 0.044441 -0.019475 0.003841 0.046681 -0.120067 -0.067665 -0.134565 0.030551 0.168827 -0.116771 0.052446 0.012618 0.089654 -0.039900 0.017798 0.039661 0.005908 0.002117 0.024032 -0.123865 -0.081595 0.153747 -0.015326 0.115182 0.060981 0.032418
不要 -0.007466 0.042946 -0.015699 -0.002656 -0.037212 0.006843 0.059851 -0.114894 0.000432 0.018813 0.084003 0.045764 -0.023563 -0.066799 0.013047 -0.017834 0.009049 0.014141 -0.072026 -0.018815 -0.077892 0.016592 0.087267 -0.070438 0.034078 0.001263 0.037758 -0.022980 0.021245 0.004412 -0.010721 0.013381 0.002774 -0.063213 -0.047414 0.087489 -0.020834 0.055005 0.046653 0.019866
燃烧 -0.005890 0.101707 -0.024720 0.003539 -0.055873 -0.002609 0.093519 -0.206159 -0.017532 0.046191 0.163861 0.101185 -0.033269 -0.120322 0.036463 -0.010867 0.021030 0.046232 -0.129669 -0.046763 -0.135625 0.019370 0.178749 -0.128723 0.047549 -0.002328 0.087186 -0.037931 0.032651 0.027628 0.006056 -0.000473 0.020107 -0.123870 -0.096648 0.170233 -0.005478 0.128919 0.072964 0.043129
年 -0.025433 0.085899 -0.026558 0.013713 -0.063574 0.011227 0.092818 -0.187048 -0.018962 0.042324 0.149422 0.104275 -0.031105 -0.116838 0.024698 -0.011315 0.000507 0.033905 -0.114033 -0.047818 -0.112120 0.017409 0.166139 -0.119298 0.036877 -0.006962 0.070449 -0.044111 0.022233 0.025995 -0.008458 0.002255 0.013113 -0.105829 -0.067947 0.150373 -0.015628 0.098121 0.065701 0.034415
原来 -0.020472 0.071863 -0.030097 0.009104 -0.063375 -0.002961 0.084007 -0.196101 -0.030206 0.029925 0.149420 0.108003 -0.051896 -0.114501 0.023088 -0.007597 0.001375 0.035559 -0.123530 -0.058028 -0.122207 0.030870 0.152207 -0.116020 0.036095 0.008685 0.066236 -0.053365 0.031763 0.016477 0.014225 -0.002883 0.019849 -0.115511 -0.081575 0.146095 -0.005276 0.103203 0.057515 0.046565
吃 -0.022143 0.099201 -0.024776 0.009011 -0.051097 -0.009972 0.106809 -0.214581 -0.016753 0.049584 0.157426 0.113237 -0.050615 -0.117468 0.046551 -0.001618 0.005853 0.045611 -0.138447 -0.055716 -0.127463 0.041517 0.182193 -0.106622 0.040590 -0.003480 0.089607 -0.038212 0.024432 0.017511 0.015812 0.009358 0.009435 -0.123434 -0.069565 0.145781 -0.013854 0.103538 0.078173 0.043415
高三 -0.024290 0.102628 -0.034519 0.007752 -0.065863 -0.000296 0.112927 -0.230947 -0.020907 0.051783 0.177635 0.116888 -0.040304 -0.133812 0.030548 -0.022956 0.014080 0.046299 -0.146664 -0.076101 -0.153316 0.033082 0.208700 -0.139045 0.047788 -0.001318 0.097926 -0.064988 0.037300 0.023827 -0.002488 0.015273 0.022351 -0.130649 -0.097710 0.168365 -0.009866 0.125273 0.080969 0.036146
这种 -0.024218 0.075512 -0.023125 0.003250 -0.056995 0.011875 0.098896 -0.177113 -0.015629 0.046419 0.149346 0.107849 -0.032986 -0.114229 0.044957 -0.012678 0.024603 0.037866 -0.120337 -0.048429 -0.107737 0.017854 0.148525 -0.112742 0.042074 0.000484 0.064068 -0.035184 0.018129 0.024253 0.006612 0.016637 0.019085 -0.112300 -0.084284 0.133162 -0.018586 0.104767 0.058468 0.032923
下 -0.002694 0.073281 -0.021199 -0.008416 -0.036822 0.008689 0.085925 -0.178960 -0.019859 0.047342 0.122730 0.082386 -0.045206 -0.113409 0.023409 -0.007820 0.002645 0.026144 -0.121145 -0.044959 -0.113892 0.034752 0.141793 -0.104649 0.030773 -0.006766 0.066068 -0.050694 0.028704 0.017103 0.014927 0.002626 0.017661 -0.101855 -0.071372 0.135308 -0.012050 0.100048 0.055866 0.036564
热泪盈眶 -0.010012 0.060252 -0.007129 -0.004375 -0.026491 0.012551 0.055475 -0.142124 -0.005786 0.030900 0.101497 0.072368 -0.036114 -0.070430 0.018554 -0.002506 0.021818 0.036489 -0.082874 -0.038070 -0.077959 0.014701 0.123357 -0.071090 0.040693 0.003784 0.048160 -0.035543 0.019635 0.021884 0.003513 0.015893 0.004894 -0.080069 -0.050533 0.094791 -0.004418 0.076789 0.044813 0.020509
： -0.011945 0.063990 -0.023954 0.004066 -0.023941 -0.006054 0.069231 -0.141120 -0.000431 0.027475 0.092722 0.060932 -0.027737 -0.088044 0.023646 -0.005343 0.001245 0.018306 -0.084160 -0.038211 -0.088888 0.029358 0.101748 -0.072824 0.024913 -0.007182 0.050089 -0.038575 0.007450 0.013131 0.006010 0.015492 0.021689 -0.076727 -0.044621 0.096289 -0.005039 0.066595 0.057208 0.012757
剧情 -0.020343 0.060058 -0.020846 -0.007183 -0.047047 -0.010803 0.074733 -0.138119 -0.002639 0.034805 0.100354 0.070703 -0.022352 -0.091850 0.021894 0.003580 0.017348 0.037121 -0.081277 -0.037131 -0.079918 0.021882 0.110369 -0.083673 0.022466 0.009597 0.062362 -0.033804 0.021362 0.024964 0.007876 -0.003428 0.017527 -0.084067 -0.048369 0.106190 -0.022020 0.090894 0.048341 0.013843
网上 -0.028503 0.086040 -0.032180 0.004677 -0.055650 -0.004731 0.108905 -0.219039 -0.014065 0.042004 0.143349 0.108248 -0.056207 -0.132941 0.039800 -0.012223 0.012480 0.039381 -0.128225 -0.068866 -0.122931 0.018505 0.178547 -0.115600 0.053125 0.014580 0.073187 -0.042088 0.019773 0.023534 0.007645 0.007829 0.025126 -0.123105 -0.091831 0.151880 -0.023011 0.122983 0.078298 0.029130
只要 -0.019792 0.089462 -0.030045 0.007760 -0.050252 0.006847 0.079523 -0.185484 -0.011885 0.039880 0.154692 0.107557 -0.042130 -0.117812 0.035535 0.001406 0.011818 0.043541 -0.124995 -0.055401 -0.126878 0.032352 0.162123 -0.114334 0.045547 -0.006691 0.083568 -0.047223 0.024532 0.022421 -0.001547 0.000862 0.009804 -0.095727 -0.079407 0.145953 -0.007723 0.101093 0.065997 0.022333
道路 -0.006724 0.085019 -0.030743 0.006542 -0.064695 0.006538 0.105785 -0.200168 -0.032073 0.038921 0.165944 0.110850 -0.051153 -0.123532 0.030298 -0.016644 0.014016 0.027000 -0.122677 -0.058922 -0.129853 0.021999 0.179935 -0.121398 0.054051 -0.004958 0.072586 -0.038390 0.023893 0.035147 -0.004123 0.012282 0.020538 -0.106533 -0.086015 0.153053 -0.023494 0.114189 0.075413 0.028911
静 -0.007726 0.079101 -0.011245 -0.007820 -0.043128 0.005358 0.094249 -0.185922 -0.012776 0.033111 0.121131 0.087624 -0.036234 -0.104486 0.037167 -0.019856 0.019613 0.036023 -0.119380 -0.056779 -0.117131 0.022667 0.146101 -0.099008 0.039994 0.001506 0.075790 -0.045702 0.028766 0.031278 0.006156 -0.003212 0.004785 -0.108752 -0.080445 0.135314 -0.019215 0.095044 0.073961 0.038274
可以 -0.012341 0.092048 -0.014116 0.009892 -0.047564 -0.005802 0.117624 -0.212534 -0.006332 0.039344 0.153192 0.123252 -0.043197 -0.124926 0.045468 -0.001307 0.019704 0.045404 -0.133223 -0.064156 -0.141388 0.020832 0.188059 -0.124846 0.046128 0.006161 0.096640 -0.048750 0.019140 0.039687 -0.003140 0.004132 0.026574 -0.130851 -0.080087 0.171306 -0.027481 0.117715 0.084097 0.029654
年纪 -0.020796 0.066927 -0.011705 -0.000598 -0.036261 0.007985 0.080631 -0.167526 -0.025337 0.030510 0.124272 0.082704 -0.024222 -0.102692 0.023718 0.003733 -0.000663 0.029768 -0.101032 -0.043676 -0.096454 0.030363 0.130443 -0.101496 0.025018 0.003112 0.057019 -0.029593 0.030371 0.010376 -0.002303 0.004014 0.023030 -0.088271 -0.065925 0.115987 -0.019848 0.094273 0.059891 0.026601
这么 -0.017899 0.060568 -0.010751 0.001613 -0.038634 0.012527 0.079033 -0.164764 -0.015380 0.036619 0.136568 0.081130 -0.042232 -0.109436 0.035362 -0.009853 0.008741 0.025918 -0.109214 -0.034445 -0.098346 0.024323 0.134510 -0.086694 0.035821 -0.008638 0.078166 -0.038394 0.019833 0.035090 -0.000304 0.012554 0.017896 -0.091733 -0.072360 0.122610 -0.020095 0.103143 0.071328 0.036901
沉 -0.005544 0.081683 -0.017126 0.014330 -0.045662 0.012723 0.099535 -0.198525 -0.025092 0.040394 0.138687 0.085281 -0.037711 -0.100779 0.029475 -0.007123 0.016460 0.026113 -0.118007 -0.048360 -0.121329 0.018498 0.156093 -0.096735 0.035650 0.012813 0.080504 -0.044216 0.032193 0.026229 0.013672 -0.000377 0.024763 -0.110720 -0.081210 0.135311 -0.015147 0.117319 0.059643 0.040850
最后 -0.018972 0.074852 -0.007348 -0.007795 -0.035436 0.002005 0.060630 -0.160132 -0.019687 0.045591 0.121796 0.077771 -0.043510 -0.087456 0.028181 -0.019609 0.006061 0.013278 -0.085311 -0.051928 -0.101972 0.009443 0.122713 -0.092754 0.026959 0.010197 0.072711 -0.034291 0.029758 0.010115 -0.006972 0.012076 0.002157 -0.072261 -0.047967 0.102539 -0.012326 0.088053 0.059189 0.022580
与 -0.012968 0.110970 -0.016427 0.016984 -0.054218 -0.004264 0.119659 -0.230149 -0.028832 0.049335 0.185650 0.131143 -0.036705 -0.139416 0.049117 -0.021922 0.005758 0.052007 -0.149071 -0.057983 -0.138602 0.045260 0.212591 -0.140525 0.064105 0.001041 0.096312 -0.052420 0.035241 0.046887 -0.001268 0.012713 0.020172 -0.119808 -0.101151 0.188145 -0.008899 0.145440 0.092397 0.043861
没 -0.000899 0.061464 -0.026169 -0.000643 -0.042928 -0.003035 0.086215 -0.155999 -0.015141 0.025132 0.119854 0.074267 -0.034075 -0.100872 0.034688 -0.001045 0.015762 0.030217 -0.094954 -0.045876 -0.099519 0.014727 0.140607 -0.089694 0.025346 -0.008723 0.056645 -0.048581 0.024702 0.019640 0.001436 -0.002202 0.024972 -0.083251 -0.070807 0.107483 -0.011584 0.097506 0.048625 0.038359
莫 -0.021932 0.049478 -0.018162 0.001604 -0.030771 0.004792 0.065438 -0.120124 -0.017358 0.036485 0.106927 0.053421 -0.014455 -0.083909 0.026922 -0.003976 0.020807 0.027008 -0.072602 -0.029305 -0.073738 0.013689 0.103127 -0.084942 0.022817 -0.001622 0.042439 -0.021828 0.014401 0.023163 0.004737 -0.001529 0.021071 -0.064969 -0.047498 0.099336 -0.020644 0.083372 0.046881 0.015385
个 -0.018166 0.085882 -0.026359 0.008972 -0.046841 0.003725 0.083090 -0.188023 -0.014751 0.031610 0.141001 0.098484 -0.029124 -0.112868 0.036468 -0.008647 0.015636 0.019726 -0.123294 -0.037488 -0.114733 0.015388 0.156317 -0.089590 0.047827 0.005443 0.062396 -0.052012 0.033063 0.035018 0.001688 0.002527 0.019408 -0.091444 -0.074393 0.137513 -0.005964 0.106969 0.070204 0.027939
拉 -0.022588 0.068631 -0.013198 -0.002595 -0.056333 -0.004999 0.078915 -0.152104 -0.014054 0.043250 0.109736 0.086160 -0.041830 -0.096186 0.030723 0.000701 0.013870 0.036453 -0.110111 -0.054820 -0.098984 0.033656 0.132714 -0.093925 0.047305 -0.001303 0.072408 -0.049680 0.030240 0.018068 0.008886 -0.001728 0.011442 -0.098893 -0.062352 0.116136 -0.004054 0.093078 0.055722 0.039334
傻逼 -0.017294 0.040491 -0.019936 0.012574 -0.039882 0.005245 0.045612 -0.115364 0.002784 0.034408 0.080206 0.065219 -0.025831 -0.070686 0.016721 -0.017136 0.013530 0.012638 -0.065770 -0.041770 -0.069462 0.013903 0.089242 -0.070302 0.029831 -0.007058 0.058782 -0.037575 0.025055 0.025142 0.004978 0.004462 0.011677 -0.078532 -0.048091 0.081914 -0.013419 0.062677 0.053824 0.022601
给 -0.025180 0.120394 -0.032226 0.013482 -0.079762 0.010455 0.111060 -0.255172 -0.014021 0.048231 0.199790 0.131010 -0.041238 -0.142780 0.035515 -0.021752 0.025518 0.042689 -0.156756 -0.078789 -0.146576 0.031050 0.208451 -0.152485 0.063249 -0.007082 0.101302 -0.056792 0.026930 0.046934 0.003160 0.009277 0.018196 -0.148387 -0.104241 0.184978 -0.008126 0.132614 0.090998 0.038270
有的 -0.016520 0.069008 -0.013372 0.004739 -0.055423 -0.009899 0.083142 -0.174275 -0.016527 0.035238 0.114363 0.080070 -0.030161 -0.096839 0.017308 -0.003959 0.009731 0.032632 -0.104155 -0.057380 -0.110242 0.014361 0.139329 -0.088927 0.044280 -0.003617 0.056089 -0.037608 0.030548 0.023694 0.001089 0.007637 0.018223 -0.088660 -0.069860 0.129104 -0.010307 0.101887 0.048636 0.036028
跟 -0.015185 0.064852 -0.014795 -0.000535 -0.047348 0.004689 0.075546 -0.183709 -0.021027 0.031248 0.130735 0.087665 -0.038427 -0.114056 0.034478 -0.018984 0.008131 0.029573 -0.111748 -0.041613 -0.109577 0.018582 0.148865 -0.114399 0.044119 -0.003966 0.078771 -0.032665 0.034615 0.031822 0.013563 0.003769 0.008965 -0.110640 -0.082973 0.144988 -0.024942 0.106182 0.060242 0.025476
拳王 -0.030373 0.088964 -0.031416 0.006422 -0.065253 -0.010114 0.101196 -0.229055 -0.014616 0.044828 0.157496 0.105842 -0.048021 -0.118788 0.041996 -0.016870 0.018124 0.036640 -0.130597 -0.073619 -0.146629 0.024626 0.196898 -0.122218 0.041370 0.010766 0.083636 -0.054418 0.021570 0.039534 0.008799 0.008291 0.024718 -0.131276 -0.075559 0.176069 -0.029012 0.115181 0.070064 0.037629
以后 -0.024725 0.090125 -0.026435 -0.001270 -0.044572 0.010282 0.105367 -0.219106 -0.010081 0.048378 0.142730 0.096685 -0.033012 -0.110894 0.040884 -0.018045 0.016693 0.022140 -0.126983 -0.044215 -0.116589 0.018386 0.172000 -0.127889 0.056866 0.011888 0.083745 -0.050602 0.039519 0.042028 -0.002358 0.013620 0.015246 -0.110403 -0.082752 0.154995 -0.019122 0.104243 0.061647 0.029143
走 -0.007754 0.111070 -0.034523 0.004359 -0.073790 0.010902 0.132361 -0.254994 -0.030125 0.063723 0.195322 0.134863 -0.051187 -0.160214 0.044383 -0.018811 0.024902 0.056743 -0.171976 -0.062640 -0.157256 0.047983 0.224338 -0.146427 0.059462 -0.000927 0.096143 -0.068424 0.045343 0.035822 0.007054 0.000488 0.033253 -0.141940 -0.101625 0.209845 -0.011750 0.147630 0.104618 0.059344
却 -0.008715 0.120587 -0.019597 0.013588 -0.084037 0.009313 0.137707 -0.269879 -0.026848 0.060883 0.187939 0.145404 -0.065795 -0.147710 0.047969 -0.009492 0.006060 0.034594 -0.175002 -0.067898 -0.151186 0.047032 0.226037 -0.157003 0.055297 -0.006945 0.110490 -0.059035 0.047560 0.037556 0.008890 0.001489 0.036950 -0.142986 -0.100332 0.187329 -0.008833 0.159008 0.101549 0.034675
永远 -0.018310 0.075533 -0.016450 0.010478 -0.051846 -0.004409 0.096380 -0.210344 -0.031934 0.035810 0.166369 0.117280 -0.049318 -0.131759 0.043837 -0.015541 0.004673 0.033976 -0.118258 -0.051073 -0.114183 0.020915 0.174715 -0.119521 0.052129 0.004739 0.081887 -0.041201 0.026523 0.024571 0.002837 0.015662 0.011688 -0.113121 -0.070311 0.154939 -0.023597 0.127378 0.062777 0.045426
读 -0.012393 0.093565 -0.029917 0.000609 -0.055363 -0.004710 0.099156 -0.236750 -0.025920 0.059834 0.167865 0.129844 -0.061028 -0.127937 0.032069 -0.013969 0.016414 0.036888 -0.154222 -0.055201 -0.148219 0.024678 0.187897 -0.135146 0.059000 0.005322 0.102140 -0.048599 0.040377 0.031212 0.013304 -0.002678 0.031280 -0.134122 -0.100803 0.161675 -0.027459 0.119663 0.079981 0.039409
同学 -0.019633 0.074078 -0.014893 -0.005210 -0.059403 -0.007031 0.106581 -0.212590 -0.020170 0.044880 0.145195 0.092813 -0.046010 -0.119669 0.038887 -0.001987 0.018399 0.029093 -0.122218 -0.059759 -0.114509 0.020939 0.161243 -0.119358 0.041928 0.001399 0.072964 -0.052350 0.032070 0.032065 0.004991 -0.004650 0.014819 -0.120251 -0.076082 0.153704 -0.018336 0.106221 0.071750 0.039309
世界 -0.020947 0.080330 -0.016198 -0.002069 -0.057512 -0.008521 0.086723 -0.191310 -0.022085 0.036796 0.138198 0.094742 -0.033038 -0.106902 0.041957 -0.019728 0.018339 0.022767 -0.118628 -0.052035 -0.125007 0.034451 0.155937 -0.099358 0.044512 -0.001518 0.068409 -0.045116 0.036347 0.016142 -0.008585 -0.002138 0.021303 -0.099699 -0.068340 0.141058 -0.007685 0.120835 0.080602 0.041128
从来 -0.007093 0.090359 -0.017046 0.011425 -0.058574 -0.002522 0.101112 -0.216293 -0.024583 0.053940 0.160952 0.122658 -0.039748 -0.132815 0.043045 -0.012904 0.009044 0.029281 -0.137532 -0.060007 -0.139247 0.038143 0.198550 -0.134175 0.063210 -0.006314 0.087050 -0.037359 0.035411 0.038924 0.013946 0.013070 0.019170 -0.112488 -0.094730 0.154174 -0.026166 0.115093 0.091950 0.053012
已经 -0.021890 0.070398 -0.023087 0.012783 -0.054414 0.005614 0.074900 -0.187360 -0.025648 0.037718 0.123511 0.104544 -0.035697 -0.092445 0.021899 -0.004716 0.012537 0.038532 -0.106123 -0.037555 -0.115627 0.026835 0.149005 -0.092466 0.037044 -0.005470 0.061221 -0.046969 0.025591 0.032601 0.008047 -0.000364 0.024416 -0.087799 -0.059710 0.131414 -0.025446 0.095100 0.058118 0.031138
梦 -0.004864 0.060574 -0.026091 0.001945 -0.034243 0.013282 0.073460 -0.163829 -0.002958 0.028795 0.130147 0.078033 -0.035187 -0.089999 0.030259 -0.008984 0.016378 0.032828 -0.099264 -0.043664 -0.083691 0.021791 0.124505 -0.081548 0.036678 -0.004083 0.062683 -0.029555 0.018839 0.028372 0.013140 -0.000529 0.018979 -0.079592 -0.068891 0.122704 -0.005795 0.080292 0.045680 0.031139
喜欢 -0.002430 0.099259 -0.008102 0.001447 -0.057175 0.004807 0.112454 -0.207497 -0.023816 0.057990 0.158807 0.112231 -0.045015 -0.121870 0.034750 -0.015183 0.027578 0.044718 -0.114676 -0.054847 -0.117513 0.030497 0.170095 -0.117610 0.039632 -0.001026 0.096753 -0.039358 0.030541 0.040494 -0.003229 0.000154 0.033435 -0.109055 -0.064104 0.155885 -0.009267 0.109103 0.082764 0.046442
名校 -0.009846 0.086413 -0.020489 -0.001472 -0.066530 -0.007256 0.107485 -0.213930 -0.029122 0.050294 0.153675 0.104341 -0.054295 -0.115685 0.029164 -0.013847 0.020666 0.025126 -0.118158 -0.052816 -0.137673 0.033692 0.180858 -0.128794 0.038066 -0.007890 0.076809 -0.057831 0.020845 0.019166 0.004544 -0.003039 0.023699 -0.119369 -0.090217 0.164776 -0.019818 0.110283 0.072178 0.043136
辈子 -0.014238 0.051649 -0.017486 0.013727 -0.015214 0.012023 0.047761 -0.101514 -0.008195 0.025489 0.083008 0.040632 -0.018518 -0.053596 0.011408 -0.010439 -0.001849 0.020093 -0.060716 -0.032993 -0.052040 0.004373 0.075983 -0.059503 0.016115 -0.004112 0.038232 -0.016697 0.012594 0.015207 -0.006944 0.005658 0.007521 -0.044610 -0.037614 0.071163 -0.012987 0.046023 0.028582 0.027528
里 -0.018492 0.085503 -0.011144 -0.005751 -0.058233 0.005240 0.078865 -0.168452 -0.007622 0.047498 0.129919 0.080871 -0.028597 -0.109587 0.030102 -0.003132 0.022447 0.025586 -0.119029 -0.057516 -0.118071 0.032722 0.149217 -0.093091 0.032616 0.001399 0.070312 -0.045966 0.013645 0.027615 -0.006327 0.013952 0.020494 -0.094573 -0.075183 0.125792 -0.010124 0.096851 0.072561 0.032229
某 -0.018712 0.065638 -0.029718 -0.003694 -0.038392 -0.008055 0.085640 -0.185080 -0.010848 0.040864 0.130273 0.099584 -0.031138 -0.113833 0.045077 0.002458 0.024118 0.035884 -0.102147 -0.044450 -0.113270 0.014937 0.164949 -0.108224 0.034008 0.008033 0.078221 -0.035990 0.025973 0.024211 -0.003500 -0.000471 0.023929 -0.102764 -0.062588 0.140174 -0.012140 0.097393 0.071888 0.040216
下去 -0.028264 0.102098 -0.015514 -0.002816 -0.072720 0.011529 0.116090 -0.230292 -0.015791 0.064491 0.178556 0.133317 -0.040389 -0.139703 0.048600 0.000929 0.029419 0.034974 -0.145536 -0.050641 -0.153109 0.037085 0.204498 -0.123428 0.055549 0.002445 0.090060 -0.058706 0.046134 0.036906 0.016452 0.002647 0.033414 -0.117461 -0.091189 0.185585 -0.026389 0.132368 0.081800 0.040311
女孩 -0.026569 0.078395 -0.023315 -0.004893 -0.040276 0.014135 0.101053 -0.193211 -0.027937 0.047044 0.140997 0.105566 -0.048839 -0.105528 0.022075 -0.004052 0.019276 0.030294 -0.127311 -0.042263 -0.104331 0.016728 0.151264 -0.094994 0.040935 0.014587 0.083694 -0.046367 0.035159 0.032108 0.005784 0.000200 0.004786 -0.108122 -0.075108 0.155958 -0.008304 0.114289 0.071585 0.040275
死 -0.019387 0.071257 -0.010968 0.003482 -0.039192 0.004035 0.060510 -0.140991 -0.025822 0.023820 0.100037 0.075532 -0.032910 -0.092192 0.031584 -0.013716 0.013215 0.034510 -0.099706 -0.047159 -0.080419 0.013116 0.139768 -0.083068 0.046545 -0.008141 0.065245 -0.043345 0.011351 0.030416 -0.004288 0.003737 0.001894 -0.091838 -0.061128 0.124718 -0.004443 0.096474 0.043685 0.022722
