131 40
， -0.049945 0.248455 -0.068541 0.015027 -0.162342 0.000025 0.293078 -0.600281 -0.045644 0.132018 0.446565 0.294553 -0.130510 -0.351670 0.111157 -0.033255 0.030290 0.110352 -0.373094 -0.160532 -0.355146 0.092366 0.507201 -0.319527 0.128324 0.015985 0.241217 -0.145526 0.082173 0.078405 0.020424 0.007708 0.046527 -0.324218 -0.223495 0.442632 -0.057842 0.313513 0.201837 0.103398
的 -0.039329 0.168471 -0.037994 0.016358 -0.109835 -0.001464 0.184344 -0.385695 -0.029482 0.074756 0.279146 0.198353 -0.080365 -0.212950 0.071849 -0.010351 0.022679 0.059868 -0.239184 -0.093997 -0.228082 0.061464 0.318383 -0.210254 0.083536 0.016467 0.153866 -0.080888 0.045053 0.059779 0.011366 0.005962 0.024294 -0.193477 -0.136388 0.271330 -0.025475 0.213285 0.136798 0.059961
你 -0.041243 0.166512 -0.047344 0.016536 -0.089853 0.013261 0.172498 -0.384512 -0.029503 0.084472 0.277760 0.190879 -0.089442 -0.227774 0.072456 -0.016622 0.019771 0.061453 -0.238666 -0.112514 -0.230899 0.055171 0.308254 -0.218106 0.079163 -0.000452 0.159361 -0.085363 0.052801 0.048555 0.005867 0.010004 0.031383 -0.202406 -0.143831 0.285194 -0.027332 0.215754 0.133040 0.057589
。 -0.022450 0.128580 -0.044116 0.008569 -0.083258 0.000376 0.132109 -0.269697 -0.030482 0.071448 0.211208 0.151842 -0.048365 -0.164481 0.059388 -0.019944 0.007264 0.048224 -0.172430 -0.071919 -0.168768 0.043380 0.248240 -0.166285 0.057182 -0.005989 0.112566 -0.071551 0.042858 0.033486 0.005992 0.011011 0.023154 -0.166717 -0.113774 0.199459 -0.023936 0.165975 0.090556 0.038804
我 -0.024416 0.119541 -0.041915 0.001230 -0.088495 0.007981 0.133725 -0.286364 -0.038128 0.051490 0.229586 0.154625 -0.056014 -0.161302 0.052951 -0.008106 0.022317 0.049085 -0.170905 -0.090566 -0.165037 0.048428 0.255858 -0.178553 0.072985 0.012145 0.129007 -0.079237 0.039671 0.034061 -0.009203 0.009146 0.030326 -0.153430 -0.121396 0.225018 -0.017871 0.155860 0.113301 0.061358
了 -0.031699 0.114811 -0.027935 0.002127 -0.085268 0.004740 0.130242 -0.287308 -0.023985 0.049189 0.213967 0.147055 -0.063514 -0.152148 0.041802 -0.010373 0.019628 0.043646 -0.175742 -0.086520 -0.175737 0.045742 0.237901 -0.160260 0.055964 -0.002578 0.121354 -0.056026 0.043826 0.044718 0.003682 -0.000847 0.022713 -0.137903 -0.107713 0.215877 -0.017085 0.147062 0.099698 0.041552
不 -0.023335 0.119357 -0.026684 0.010287 -0.076859 0.009966 0.133896 -0.294815 -0.015107 0.065572 0.211433 0.150219 -0.069092 -0.160071 0.051965 -0.008000 0.018727 0.038439 -0.181291 -0.090084 -0.172913 0.044666 0.244768 -0.169972 0.073986 0.006026 0.107697 -0.055481 0.047867 0.050166 0.010916 0.014992 0.022656 -0.167489 -0.116541 0.209642 -0.031945 0.166011 0.109177 0.049365
要 -0.024773 0.134237 -0.037479 -0.002627 -0.089586 0.007829 0.164876 -0.313859 -0.017957 0.081002 0.239427 0.169831 -0.079814 -0.178940 0.049720 -0.010924 0.016765 0.044599 -0.197221 -0.098626 -0.185625 0.047426 0.283926 -0.187566 0.072631 0.000271 0.135013 -0.077895 0.037222 0.042156 -0.006924 0.019214 0.031290 -0.184584 -0.119506 0.230709 -0.020934 0.189465 0.114413 0.062912
就 -0.018825 0.114349 -0.037514 0.008142 -0.074912 0.006968 0.111218 -0.256271 -0.028767 0.048824 0.195318 0.130776 -0.056015 -0.134427 0.044870 -0.010351 0.027365 0.034501 -0.141627 -0.061280 -0.145113 0.039572 0.220679 -0.129590 0.064292 0.015066 0.086857 -0.059713 0.040132 0.041929 -0.001360 0.009008 0.011564 -0.133170 -0.097896 0.188635 -0.033467 0.140298 0.096474 0.035543
厉害 1.000000 1.000000 1.000000 1.000000 1.000000 1.000000 1.000000 1.000000 1.000000 1.000000 1.000000 1.000000 1.000000 1.000000 1.000000 1.000000 1.000000 1.000000 1.000000 1.000000 1.000000 1.000000 1.000000 1.000000 1.000000 1.000000 1.000000 1.000000 1.000000 1.000000 1.000000 1.000000 1.000000 1.000000 1.000000 1.000000 1.000000 1.000000 1.000000 1.000000
是 -0.015308 0.118479 -0.034746 0.004726 -0.090151 0.009048 0.154893 -0.316616 -0.035107 0.063368 0.234225 0.147771 -0.058780 -0.179222 0.041979 -0.015269 0.012945 0.043506 -0.192845 -0.092222 -0.187176 0.042896 0.261254 -0.168986 0.073668 0.002927 0.111908 -0.066907 0.041260 0.042598 -0.002348 0.015284 0.032251 -0.157770 -0.121317 0.219982 -0.020035 0.172317 0.110215 0.064298
也 -0.008717 0.103301 -0.030568 0.003435 -0.062669 0.013177 0.111641 -0.255208 -0.034804 0.056845 0.183333 0.119417 -0.057268 -0.140620 0.043083 -0.002113 0.019481 0.052139 -0.148069 -0.074307 -0.166702 0.039835 0.205450 -0.150649 0.062755 -0.003559 0.090320 -0.062596 0.020796 0.047933 0.007782 -0.004417 0.035685 -0.143631 -0.096353 0.197177 -0.025606 0.135223 0.101254 0.037137
更 -0.018236 0.099390 -0.013746 0.001060 -0.064577 -0.005951 0.109574 -0.219039 -0.012990 0.039937 0.160230 0.117912 -0.058629 -0.135260 0.036088 0.001779 0.001798 0.035664 -0.143196 -0.048271 -0.141668 0.041764 0.193022 -0.112271 0.054414 0.014018 0.079599 -0.038880 0.029609 0.033563 0.008601 0.014603 0.023321 -0.109094 -0.086166 0.173210 -0.009034 0.120706 0.085330 0.036169
说 -0.002526 0.067677 -0.018465 -0.004770 -0.056930 -0.009787 0.088299 -0.163216 -0.027089 0.037451 0.121650 0.078364 -0.028152 -0.101406 0.018432 -0.016580 0.007540 0.021874 -0.113275 -0.041963 -0.104335 0.021365 0.148889 -0.094494 0.037656 -0.007080 0.079096 -0.030969 0.025331 0.028287 0.010442 0.012321 0.028749 -0.084513 -0.077368 0.131485 -0.026738 0.087664 0.058963 0.033415
一 -0.022184 0.103678 -0.031426 0.012082 -0.067503 0.012494 0.115265 -0.227198 -0.021407 0.046066 0.179644 0.130767 -0.045632 -0.142255 0.052959 -0.006497 0.021994 0.033732 -0.158867 -0.067050 -0.133560 0.040850 0.207215 -0.133122 0.064133 -0.006901 0.091965 -0.056412 0.039885 0.025367 0.010976 0.016093 0.015506 -0.117345 -0.094418 0.189476 -0.031272 0.125115 0.079632 0.030563
一个 -0.011031 0.056886 -0.016516 -0.004764 -0.031340 0.011515 0.068771 -0.162502 -0.013451 0.030027 0.112812 0.070562 -0.025090 -0.089651 0.026985 -0.017828 0.007402 0.015039 -0.105420 -0.037528 -0.090643 0.009131 0.137810 -0.081772 0.041513 0.011594 0.056021 -0.034159 0.008697 0.023017 0.001550 0.001659 0.003583 -0.093169 -0.062866 0.123983 -0.003269 0.077662 0.053537 0.025632
人 -0.009538 0.099936 -0.023360 0.015370 -0.066195 -0.000555 0.123469 -0.244205 -0.025129 0.055031 0.177427 0.130970 -0.045485 -0.131521 0.029528 -0.002212 0.023415 0.046927 -0.135348 -0.079034 -0.142576 0.040369 0.201793 -0.134547 0.051415 -0.007303 0.107135 -0.055296 0.031369 0.042792 0.001902 0.003590 0.028102 -0.137842 -0.083747 0.165546 -0.030018 0.144975 0.084112 0.044437
有 -0.013421 0.082318 -0.036632 0.017604 -0.055103 -0.006899 0.114305 -0.216892 -0.018355 0.049223 0.165475 0.108189 -0.052211 -0.136970 0.050472 -0.002227 0.015995 0.030583 -0.134615 -0.067939 -0.143128 0.035358 0.190504 -0.114170 0.052797 0.004849 0.092661 -0.045479 0.035447 0.025391 -0.009062 -0.003312 0.009869 -0.112177 -0.097956 0.172170 -0.024840 0.115166 0.073601 0.050532
很 1.000000 1.000000 1.000000 1.000000 1.000000 1.000000 1.000000 1.000000 1.000000 1.000000 1.000000 1.000000 1.000000 1.000000 1.000000 1.000000 1.000000 1.000000 1.000000 1.000000 1.000000 1.000000 1.000000 1.000000 1.000000 1.000000 1.000000 1.000000 1.000000 1.000000 1.000000 1.000000 1.000000 1.000000 1.000000 1.000000 1.000000 1.000000 1.000000 1.000000
到 -0.028799 0.126864 -0.042695 0.019066 -0.063965 0.007147 0.132323 -0.284335 -0.035220 0.071741 0.210550 0.148783 -0.069447 -0.158448 0.058671 -0.018421 0.023223 0.058481 -0.177720 -0.082865 -0.176184 0.040657 0.239931 -0.171060 0.053648 -0.007767 0.122686 -0.055682 0.042618 0.037284 0.002990 0.017253 0.028707 -0.147272 -0.111156 0.201546 -0.035135 0.157292 0.092894 0.044965
在 -0.015026 0.141937 -0.042846 -0.000367 -0.077905 0.000675 0.147400 -0.312433 -0.039099 0.064991 0.233107 0.155590 -0.073050 -0.190720 0.048777 -0.004539 0.027974 0.062524 -0.197427 -0.097062 -0.182747 0.043371 0.264530 -0.179121 0.080188 -0.006393 0.129559 -0.070902 0.045238 0.044241 0.002234 0.019162 0.024881 -0.169280 -0.120783 0.228898 -0.014846 0.178402 0.121236 0.052163
都 -0.031772 0.111456 -0.034565 0.013459 -0.075112 0.001321 0.116586 -0.260381 -0.034479 0.062636 0.207255 0.137701 -0.067752 -0.152217 0.046809 -0.011292 0.010750 0.038366 -0.168470 -0.063735 -0.168602 0.039768 0.227433 -0.139243 0.070801 -0.003471 0.099954 -0.055792 0.027824 0.041575 0.012898 0.020338 0.029706 -0.139427 -0.112201 0.198189 -0.016442 0.155607 0.096528 0.055048
最 -0.026835 0.071302 -0.021466 0.006450 -0.046801 0.011778 0.075806 -0.179378 -0.005894 0.034785 0.128369 0.082152 -0.050066 -0.110256 0.044158 -0.005486 0.019834 0.024494 -0.105097 -0.055484 -0.113983 0.015176 0.163343 -0.108037 0.048858 0.004667 0.075063 -0.048303 0.022323 0.037306 0.009691 0.009320 0.009723 -0.094923 -0.058702 0.139134 -0.025343 0.100618 0.052614 0.023194
会 -0.022385 0.080813 -0.025342 -0.002024 -0.051800 -0.004938 0.083618 -0.175358 -0.010125 0.028757 0.118600 0.076682 -0.030882 -0.100561 0.026458 -0.013727 0.005791 0.029765 -0.099719 -0.035498 -0.111822 0.036001 0.131465 -0.101950 0.050853 -0.006017 0.075203 -0.042284 0.018567 0.031636 -0.001788 0.003505 0.015408 -0.094582 -0.079517 0.115089 -0.016519 0.095241 0.053389 0.022348
现在 -0.029484 0.116775 -0.034497 0.016569 -0.080471 -0.006016 0.130088 -0.268415 -0.028258 0.060942 0.192856 0.124146 -0.062821 -0.155625 0.053402 -0.022455 0.019413 0.042761 -0.161599 -0.073533 -0.154609 0.033370 0.204288 -0.154076 0.068230 0.004518 0.091190 -0.067004 0.043328 0.024682 0.014054 0.010811 0.024307 -0.148886 -0.111581 0.184865 -0.027312 0.138598 0.084260 0.046117
想 -0.029963 0.119134 -0.036926 0.017842 -0.087160 -0.005903 0.138456 -0.281894 -0.026789 0.062051 0.212753 0.153649 -0.067112 -0.161330 0.062690 -0.020594 0.026161 0.044959 -0.190716 -0.091639 -0.190520 0.048314 0.248735 -0.177712 0.068468 0.007260 0.122779 -0.060611 0.030750 0.051020 -0.006492 0.012107 0.036822 -0.152643 -0.108976 0.219539 -0.015703 0.166213 0.104537 0.050344
好 -0.017260 0.053144 -0.024125 0.000502 -0.029494 -0.009597 0.062821 -0.141306 -0.005363 0.022686 0.115273 0.079767 -0.034601 -0.089806 0.032782 -0.002974 0.015353 0.033903 -0.103098 -0.035486 -0.088612 0.009771 0.134766 -0.082894 0.026839 -0.001802 0.047187 -0.036886 0.008449 0.019512 -0.003881 -0.005574 0.005375 -0.078295 -0.059058 0.108403 -0.016175 0.081518 0.049131 0.019675
着 -0.012541 0.133774 -0.027550 -0.005168 -0.083829 0.005082 0.138507 -0.308779 -0.014996 0.054339 0.215721 0.138961 -0.061224 -0.169649 0.055386 -0.019188 0.021468 0.043373 -0.195599 -0.076444 -0.185097 0.041652 0.262749 -0.165510 0.077360 0.009916 0.124374 -0.068278 0.034158 0.034588 0.003203 0.000790 0.018457 -0.163089 -0.107709 0.231937 -0.037400 0.174187 0.105170 0.060127
学霸 -0.015286 0.146540 -0.046361 0.019901 -0.091928 0.010401 0.160107 -0.337534 -0.025740 0.070140 0.252524 0.161311 -0.084459 -0.179648 0.067461 -0.019784 0.023480 0.063139 -0.195855 -0.099774 -0.200283 0.044423 0.283327 -0.173495 0.073141 0.013913 0.134308 -0.078025 0.044381 0.038355 0.003960 0.004853 0.041409 -0.183166 -0.126399 0.244100 -0.033741 0.188866 0.104897 0.067850
成为 -0.011016 0.100195 -0.026118 0.009428 -0.066666 0.013264 0.131350 -0.243138 -0.031295 0.056451 0.196876 0.140994 -0.056795 -0.155499 0.052775 -0.011528 0.011906 0.043887 -0.154945 -0.070707 -0.165041 0.027061 0.223552 -0.138297 0.059066 0.014527 0.106565 -0.054444 0.033831 0.040101 -0.005709 0.012917 0.031192 -0.138289 -0.100067 0.188361 -0.034440 0.133838 0.087622 0.055928
他 -0.026655 0.087058 -0.024466 0.000933 -0.054173 0.009910 0.101147 -0.219238 -0.026560 0.036658 0.155748 0.105724 -0.053587 -0.128169 0.031809 -0.002120 0.014324 0.046334 -0.133511 -0.052820 -0.123694 0.039027 0.182265 -0.126456 0.057150 -0.009340 0.073855 -0.040300 0.029369 0.018808 0.013588 0.016716 0.018533 -0.127369 -0.083864 0.169444 -0.019175 0.108104 0.082820 0.047767
再 -0.028411 0.107732 -0.018904 0.011590 -0.068059 0.002869 0.119705 -0.266091 -0.030692 0.044779 0.199519 0.118778 -0.054408 -0.138071 0.050928 -0.011486 0.026148 0.045288 -0.158876 -0.061661 -0.150550 0.025583 0.208921 -0.134317 0.069728 -0.001647 0.097616 -0.056958 0.045711 0.036031 -0.005706 0.014923 0.035394 -0.130730 -0.105931 0.190074 -0.018645 0.153056 0.096797 0.048334
说话 -0.009639 0.073395 -0.008657 -0.002515 -0.046828 -0.002430 0.070968 -0.165087 -0.011776 0.028492 0.117717 0.083997 -0.023789 -0.108528 0.026060 -0.019712 0.008337 0.016153 -0.093828 -0.047699 -0.111570 0.014443 0.141350 -0.085169 0.050928 0.012258 0.069812 -0.040401 0.025281 0.012595 0.013933 -0.003928 0.009673 -0.103639 -0.059103 0.123964 -0.005404 0.101571 0.062978 0.032558
漂亮 -0.012435 0.099994 -0.015995 -0.002290 -0.057960 0.002340 0.111024 -0.226472 -0.027823 0.049976 0.172867 0.108944 -0.051034 -0.133217 0.033969 -0.008244 0.022295 0.038200 -0.139571 -0.053933 -0.142032 0.031322 0.192054 -0.127630 0.038264 0.015856 0.079704 -0.043168 0.025709 0.037298 0.005478 0.015225 0.025834 -0.128842 -0.094586 0.152229 -0.022858 0.121023 0.064797 0.045248
这 -0.012473 0.099427 -0.023855 0.010355 -0.063421 0.001789 0.093472 -0.228313 -0.011410 0.045036 0.159823 0.100664 -0.044153 -0.130603 0.043794 -0.004758 0.016959 0.040593 -0.138596 -0.065712 -0.137520 0.031284 0.177124 -0.129572 0.046907 0.013529 0.094065 -0.059238 0.042249 0.037461 0.006727 0.009183 0.015691 -0.120103 -0.096203 0.155902 -0.020221 0.129425 0.065686 0.034584
越 -0.018352 0.084922 -0.035337 -0.000673 -0.058990 -0.002944 0.100573 -0.199122 -0.009769 0.052277 0.147990 0.098301 -0.034041 -0.110532 0.042727 -0.012093 0.023576 0.036145 -0.126180 -0.048566 -0.125933 0.038858 0.177847 -0.112005 0.051425 -0.003634 0.070153 -0.052547 0.025503 0.027447 0.004551 0.010246 0.029735 -0.121368 -0.083019 0.150309 -0.028855 0.104934 0.084464 0.039411
有趣 -0.028419 0.124366 -0.031406 0.013988 -0.076443 0.006346 0.140132 -0.261621 -0.027791 0.067499 0.188338 0.141068 -0.063489 -0.160070 0.051006 -0.024601 0.021706 0.040015 -0.165863 -0.067872 -0.155874 0.039262 0.220137 -0.141065 0.066499 -0.007122 0.097173 -0.060509 0.027695 0.035380 0.007966 0.007354 0.036554 -0.134078 -0.092882 0.208658 -0.011933 0.141901 0.095748 0.057471
能 -0.014040 0.087285 -0.022963 -0.002062 -0.066614 -0.003238 0.085610 -0.189995 -0.025006 0.032398 0.140034 0.110196 -0.031489 -0.120963 0.027351 -0.008381 0.005150 0.035034 -0.124853 -0.065862 -0.113370 0.025430 0.166810 -0.107566 0.040402 -0.001108 0.083460 -0.042373 0.038557 0.025211 -0.008230 0.013034 0.020919 -0.108046 -0.077537 0.156208 -0.016083 0.114666 0.075016 0.033607
故事 -0.021443 0.126838 -0.037028 -0.006473 -0.090975 -0.007629 0.141395 -0.326255 -0.019162 0.066089 0.232662 0.156364 -0.062546 -0.185911 0.068839 -0.026766 0.011631 0.041942 -0.206656 -0.090020 -0.204179 0.047422 0.280409 -0.172440 0.081095 -0.003745 0.132792 -0.062775 0.049345 0.050474 0.013457 0.016778 0.017606 -0.169110 -0.122022 0.237270 -0.025848 0.186448 0.110928 0.042876
上 -0.000077 0.059728 -0.015842 -0.007147 -0.026498 0.003618 0.062480 -0.113508 -0.009230 0.026606 0.096458 0.065824 -0.033579 -0.071843 0.018107 -0.011716 0.015814 0.019457 -0.072244 -0.026244 -0.068761 0.026975 0.105431 -0.071745 0.029015 0.012673 0.038538 -0.022307 0.009104 0.021247 -0.007378 -0.000457 0.018825 -0.051421 -0.052517 0.094327 -0.003211 0.050586 0.051440 0.020282
做 -0.018725 0.067296 -0.015524 -0.000680 -0.034992 -0.003268 0.062528 -0.124663 -0.010392 0.031916 0.095444 0.069774 -0.027867 -0.083721 0.017724 0.002657 0.002108 0.009019 -0.073532 -0.047688 -0.092504 0.015143 0.122758 -0.077300 0.031958 -0.009307 0.041244 -0.040096 0.013343 0.007759 -0.005275 0.003946 0.011494 -0.061705 -0.043709 0.102268 -0.020121 0.072985 0.039858 0.024817
很多 -0.006253 0.076310 -0.014737 0.006726 -0.065459 0.000240 0.105544 -0.206239 -0.020345 0.052430 0.155141 0.100735 -0.049000 -0.115671 0.036963 -0.007363 0.013405 0.039149 -0.136089 -0.056517 -0.124931 0.015966 0.179314 -0.124733 0.048942 0.005970 0.069465 -0.040427 0.021119 0.022909 -0.004283 -0.002740 0.026833 -0.123283 -0.069640 0.157352 -0.007606 0.107293 0.072779 0.043999
看 0.000319 0.063259 -0.013861 0.005603 -0.033286 0.004776 0.070397 -0.136830 -0.002769 0.036196 0.107072 0.059251 -0.022245 -0.079554 0.035736 -0.010495 0.016727 0.035054 -0.072646 -0.040188 -0.086318 0.009999 0.119711 -0.063954 0.038138 0.011693 0.064227 -0.018919 0.008560 0.026292 0.011805 -0.008251 0.005753 -0.084588 -0.064745 0.110024 -0.002127 0.062790 0.042037 0.016883
热血 -0.027623 0.089358 -0.014466 -0.003965 -0.068680 0.010710 0.099361 -0.222495 -0.015493 0.049237 0.155003 0.120835 -0.050842 -0.133480 0.034749 -0.019380 0.017439 0.045609 -0.132002 -0.053014 -0.121246 0.033533 0.174236 -0.129086 0.042694 0.001673 0.073851 -0.047599 0.021986 0.027587 0.004668 0.006373 0.016856 -0.111608 -0.093522 0.157363 -0.012386 0.131508 0.080708 0.047577
什么 -0.007859 0.095180 -0.032564 -0.004665 -0.055938 0.010902 0.106478 -0.242568 -0.028389 0.056060 0.188510 0.122914 -0.055886 -0.145901 0.038777 -0.016054 0.012285 0.041425 -0.152898 -0.057410 -0.136078 0.028431 0.213397 -0.136998 0.066563 0.000680 0.085224 -0.065922 0.042890 0.032555 -0.004763 0.008669 0.025635 -0.140886 -0.087654 0.173205 -0.015609 0.143289 0.079571 0.045435
方法 -0.005548 0.086049 -0.033032 -0.007906 -0.060239 0.000511 0.088343 -0.192515 -0.012084 0.047905 0.151792 0.099313 -0.054215 -0.105406 0.024656 -0.005665 0.017817 0.040106 -0.128124 -0.062272 -0.118205 0.034379 0.153921 -0.100778 0.037328 0.007912 0.085531 -0.033635 0.014623 0.017995 0.009322 -0.001078 0.013427 -0.118180 -0.071849 0.148966 -0.014353 0.096767 0.065859 0.044232
见 -0.022745 0.046761 -0.029591 -0.008287 -0.031342 -0.011254 0.075023 -0.130870 -0.011852 0.041492 0.113359 0.074087 -0.026273 -0.092677 0.037564 -0.004183 0.002095 0.030357 -0.081112 -0.051452 -0.095892 0.023584 0.113482 -0.075019 0.043169 0.011185 0.061836 -0.032184 0.008059 0.008110 -0.011735 0.008624 0.025525 -0.084453 -0.056097 0.097495 -0.000569 0.066740 0.054193 0.022212
和 -0.011093 0.081592 -0.024440 0.010614 -0.044898 0.014197 0.082427 -0.201991 -0.020499 0.053168 0.145584 0.094819 -0.038922 -0.124211 0.038470 -0.005517 0.002515 0.028404 -0.111450 -0.047829 -0.130318 0.033568 0.170177 -0.110698 0.049225 0.012047 0.071528 -0.039110 0.031073 0.029651 0.007492 0.017238 0.029285 -0.103698 -0.079452 0.152837 -0.018552 0.118016 0.080184 0.045647
小 0.000805 0.048230 -0.008607 0.012142 -0.034572 -0.006421 0.059735 -0.106761 -0.018493 0.032877 0.073585 0.065523 -0.016004 -0.057979 0.023148 -0.013250 0.011801 0.021366 -0.055842 -0.017669 -0.070901 0.019767 0.092972 -0.055393 0.017572 0.009609 0.039231 -0.031501 0.006972 0.012062 -0.002698 0.003825 0.006976 -0.071444 -0.046702 0.068335 -0.007216 0.061066 0.040583 0.031568
非常 -0.025641 0.124518 -0.036439 0.002205 -0.074567 0.003835 0.123893 -0.269192 -0.031144 0.064570 0.206390 0.149851 -0.065120 -0.149717 0.050594 -0.025949 0.004895 0.058337 -0.163373 -0.079316 -0.177962 0.025870 0.218853 -0.139249 0.056298 -0.004590 0.110339 -0.061431 0.039322 0.051023 -0.000080 0.001789 0.016192 -0.159737 -0.102870 0.208804 -0.025181 0.146628 0.097145 0.054075
吧 -0.032569 0.129387 -0.034115 -0.002518 -0.071847 -0.002529 0.139124 -0.296653 -0.033519 0.069553 0.218094 0.135597 -0.063413 -0.165482 0.037554 -0.005681 0.011087 0.052795 -0.186550 -0.071809 -0.165370 0.039427 0.235210 -0.161544 0.064571 0.005628 0.124231 -0.070849 0.047031 0.033684 -0.007361 -0.000727 0.029851 -0.148098 -0.113388 0.205389 -0.029779 0.168870 0.111458 0.055606
自己 -0.009572 0.110313 -0.029557 0.001548 -0.078269 0.004240 0.107970 -0.262550 -0.015018 0.047699 0.181046 0.126053 -0.047226 -0.134670 0.034822 -0.014291 0.004924 0.048694 -0.158291 -0.080665 -0.162066 0.040369 0.208059 -0.130756 0.059886 -0.004790 0.107725 -0.049454 0.028569 0.030927 0.011844 0.011102 0.029096 -0.132400 -0.108056 0.189230 -0.015680 0.147135 0.085134 0.055142
来 -0.005090 0.077349 -0.027225 -0.002315 -0.053373 0.013644 0.071139 -0.161609 -0.008628 0.029438 0.108107 0.075754 -0.041860 -0.088603 0.026157 -0.010228 -0.001922 0.021919 -0.095462 -0.053069 -0.107957 0.027110 0.147971 -0.096981 0.038186 0.013770 0.063986 -0.043057 0.024166 0.023515 -0.007811 0.012980 0.016628 -0.090955 -0.065825 0.121792 -0.018299 0.090762 0.061755 0.020313
时 -0.021446 0.128630 -0.032181 0.019234 -0.078414 -0.005684 0.133726 -0.305633 -0.023449 0.060876 0.211341 0.160835 -0.067514 -0.162548 0.060475 -0.015735 0.017153 0.052374 -0.196550 -0.071971 -0.175769 0.044977 0.240525 -0.154883 0.078303 -0.006971 0.111906 -0.076339 0.037814 0.052699 0.015766 0.010427 0.038988 -0.154985 -0.126869 0.219794 -0.015671 0.164183 0.105177 0.048676
得 -0.022453 0.072408 -0.010288 -0.004156 -0.056572 0.007215 0.084024 -0.166076 -0.018130 0.027537 0.109907 0.077207 -0.044577 -0.092938 0.017632 0.003128 0.005899 0.022417 -0.094454 -0.046499 -0.089793 0.032535 0.148131 -0.090962 0.047731 0.010178 0.075673 -0.039464 0.028218 0.017234 -0.008923 0.013443 0.008307 -0.084153 -0.063128 0.108969 -0.013309 0.089423 0.046138 0.034890
少年 -0.011445 0.057749 -0.016199 -0.008733 -0.036966 0.012122 0.091680 -0.156636 -0.012529 0.032537 0.112238 0.074009 -0.036687 -0.101432 0.040251 -0.016333 0.014388 0.031931 -0.099479 -0.036626 -0.103402 0.019790 0.152762 -0.090503 0.041097 0.008824 0.060970 -0.030342 0.018719 0.022648 0.004109 0.010728 0.010675 -0.099957 -0.073149 0.115427 -0.006117 0.096336 0.070361 0.031894
励 -0.014496 0.115303 -0.034588 -0.000584 -0.083318 -0.001362 0.115817 -0.252846 -0.020508 0.049629 0.185538 0.141777 -0.064717 -0.160272 0.047409 -0.025855 0.022000 0.046222 -0.168883 -0.064540 -0.166001 0.038705 0.228333 -0.155012 0.059081 0.004104 0.091393 -0.047845 0.023411 0.039821 0.002116 0.010166 0.022572 -0.139947 -0.094783 0.202781 -0.018422 0.149765 0.091537 0.040051
点 -0.021754 0.080410 -0.015465 0.015275 -0.048748 0.002713 0.095073 -0.168616 -0.012341 0.025924 0.121565 0.093082 -0.027033 -0.101715 0.018936 0.001896 0.001414 0.021644 -0.099098 -0.044062 -0.102996 0.016112 0.137860 -0.099436 0.039207 -0.004781 0.073996 -0.038245 0.027478 0.031762 -0.009217 0.014525 0.014704 -0.094237 -0.066187 0.137751 -0.019539 0.096074 0.072690 0.036065
心 -0.022811 0.078933 -0.009453 0.007517 -0.055317 0.012790 0.092241 -0.170368 -0.025510 0.051479 0.131730 0.090862 -0.047865 -0.095422 0.022045 -0.011710 0.003845 0.021570 -0.117660 -0.046013 -0.116088 0.018489 0.150671 -0.090109 0.051762 -0.004908 0.071562 -0.049983 0.027572 0.027001 0.001685 0.006141 0.011531 -0.104919 -0.061435 0.139705 -0.013667 0.088864 0.074812 0.033343
承诺 -0.007854 0.059329 -0.025939 -0.002115 -0.045264 -0.007690 0.087878 -0.171309 -0.002884 0.045447 0.128791 0.080898 -0.039989 -0.094406 0.030666 -0.006573 0.019643 0.022648 -0.109007 -0.039288 -0.099012 0.024901 0.149203 -0.102713 0.038395 -0.006373 0.077628 -0.029336 0.021994 0.027862 -0.005068 0.011355 0.008788 -0.089546 -0.064397 0.124262 -0.002711 0.085470 0.053664 0.035567
读书 -0.027087 0.110070 -0.036143 0.011776 -0.063610 -0.007825 0.116633 -0.275800 -0.011680 0.052130 0.193980 0.134831 -0.055419 -0.154211 0.038520 -0.014787 0.016901 0.034189 -0.168964 -0.075216 -0.149657 0.037037 0.217641 -0.154813 0.072296 0.002928 0.102634 -0.054645 0.034884 0.040204 0.012046 0.005174 0.013239 -0.145742 -0.097750 0.201119 -0.022856 0.147044 0.104890 0.041326
逼 -0.015231 0.073035 -0.032586 0.016235 -0.049995 0.008546 0.070957 -0.183874 -0.013782 0.041327 0.137835 0.079222 -0.031738 -0.095028 0.025416 0.002076 0.007426 0.032243 -0.101261 -0.059217 -0.109852 0.028604 0.157483 -0.109048 0.027779 0.009890 0.070909 -0.042786 0.034858 0.029710 -0.008204 0.015544 0.007340 -0.089350 -0.075759 0.139915 -0.005748 0.100070 0.073820 0.023352
这样 -0.019250 0.076867 -0.037280 0.013267 -0.068902 -0.008739 0.106021 -0.202865 -0.013578 0.030896 0.163796 0.108210 -0.041427 -0.115516 0.040434 -0.009200 0.025053 0.030770 -0.138642 -0.054894 -0.125665 0.017476 0.172244 -0.124671 0.039105 0.011030 0.086881 -0.046490 0.017500 0.021746 0.003641 -0.005309 0.020854 -0.116830 -0.091320 0.164672 -0.028483 0.121715 0.077802 0.036855
志书 -0.018299 0.104643 -0.034576 0.003340 -0.068515 0.012014 0.107448 -0.240319 -0.032814 0.056878 0.193784 0.138167 -0.046682 -0.150316 0.039338 -0.019865 0.023811 0.030899 -0.163388 -0.076638 -0.152426 0.044961 0.206314 -0.132190 0.064849 -0.009206 0.094979 -0.054897 0.044316 0.041505 0.008006 0.018881 0.030014 -0.141841 -0.107885 0.171789 -0.011992 0.131089 0.083437 0.037825
生活 -0.017189 0.060337 -0.011775 -0.000953 -0.039704 0.004251 0.069245 -0.153462 -0.006882 0.041503 0.106947 0.069375 -0.023075 -0.088356 0.020952 -0.007045 0.021390 0.018171 -0.097441 -0.054135 -0.093319 0.010330 0.115262 -0.084286 0.024740 -0.003306 0.057620 -0.027322 0.018065 0.015511 -0.012021 0.002675 0.021718 -0.069768 -0.061458 0.120324 -0.016570 0.086619 0.048252 0.020323
失约 -0.021736 0.068172 -0.012477 -0.003126 -0.046645 -0.001995 0.081377 -0.160231 -0.022723 0.033710 0.122476 0.086440 -0.023805 -0.106901 0.018663 -0.006284 0.001088 0.029304 -0.102305 -0.055355 -0.096320 0.026164 0.149514 -0.091104 0.036710 0.014681 0.070138 -0.045227 0.023716 0.017167 0.009625 -0.000255 0.009352 -0.092043 -0.063433 0.131343 -0.004178 0.081362 0.057345 0.031708
从 -0.019104 0.093899 -0.025337 0.007839 -0.064148 -0.006411 0.125663 -0.250408 -0.017133 0.051497 0.178695 0.133006 -0.056617 -0.131092 0.048973 -0.018130 0.023732 0.040585 -0.163987 -0.054781 -0.136735 0.037997 0.204328 -0.129905 0.061095 0.001203 0.096432 -0.049123 0.033961 0.035396 0.010174 0.013064 0.032238 -0.131373 -0.088893 0.180883 -0.007929 0.125612 0.086631 0.032386
这些 -0.017144 0.100148 -0.035047 -0.003973 -0.057898 0.005335 0.095568 -0.220387 -0.008862 0.045441 0.157642 0.109435 -0.053836 -0.125093 0.033202 -0.019021 0.017025 0.040405 -0.134177 -0.058467 -0.131572 0.024036 0.186279 -0.132574 0.061219 0.007960 0.096979 -0.057597 0.019686 0.023792 0.005394 -0.005709 0.015441 -0.108444 -0.078827 0.159903 -0.019608 0.120299 0.066666 0.042532
还 -0.010589 0.045373 -0.019291 -0.009737 -0.033756 0.004500 0.042118 -0.106810 -0.008998 0.029211 0.076392 0.044825 -0.018578 -0.047652 0.029073 -0.001759 -0.000072 0.003679 -0.060860 -0.016668 -0.059438 0.022568 0.068886 -0.049169 0.014232 0.000309 0.030788 -0.017932 0.015922 0.010072 0.012208 0.010088 0.013674 -0.052155 -0.029652 0.075418 -0.017154 0.044488 0.036700 0.018686
人群 0.000007 0.063775 -0.018567 0.000786 -0.044939 -0.004451 0.078369 -0.147849 -0.003825 0.019163 0.102455 0.060372 -0.030104 -0.081199 0.027368 -0.000124 0.019002 0.021289 -0.094834 -0.037869 -0.094547 0.012421 0.109131 -0.080456 0.038836 -0.002353 0.055902 -0.020119 0.031272 0.023657 0.009397 -0.004999 0.001332 -0.073451 -0.047793 0.102327 -0.006121 0.069892 0.038122 0.023892
写 -0.010451 0.054997 -0.029318 -0.008296 -0.033216 0.011411 0.076486 -0.147456 -0.022511 0.021775 0.111198 0.078406 -0.036096 -0.095706 0.023449 -0.008232 0.015783 0.018548 -0.091132 -0.029553 -0.077721 0.019010 0.133007 -0.081072 0.026280 0.008278 0.054176 -0.028818 0.009230 0.029178 0.004673 -0.003486 0.017811 -0.067409 -0.061558 0.096979 -0.018274 0.082812 0.064587 0.028198
觉得 -0.009058 0.075909 -0.031814 0.016522 -0.053234 -0.003256 0.094859 -0.201330 -0.029433 0.029341 0.134669 0.089052 -0.053170 -0.121482 0.044018 -0.004368 0.004342 0.034430 -0.120193 -0.046188 -0.127317 0.032600 0.165131 -0.109726 0.047647 0.014061 0.076815 -0.050431 0.035244 0.031829 -0.003503 0.012144 0.021865 -0.095684 -0.075901 0.146258 -0.026594 0.116771 0.066500 0.035672
那些 -0.009672 0.071064 -0.012941 0.007473 -0.061847 -0.002744 0.086843 -0.192428 -0.010793 0.030120 0.148346 0.101368 -0.028331 -0.110325 0.037054 0.001549 0.011742 0.028212 -0.106693 -0.061018 -0.107655 0.023861 0.158163 -0.101781 0.053055 -0.007956 0.085011 -0.045045 0.024549 0.024644 0.003375 0.004843 0.011625 -0.109688 -0.071543 0.131481 -0.025920 0.114544 0.071754 0.035943
痛苦 -0.026959 0.094595 -0.036477 -0.006091 -0.073334 0.003143 0.116616 -0.240298 -0.012445 0.056112 0.183732 0.125258 -0.043558 -0.138952 0.049036 -0.019663 0.003771 0.050940 -0.161111 -0.068498 -0.155433 0.025985 0.219972 -0.134196 0.068541 0.005992 0.096696 -0.062018 0.038995 0.035154 0.000543 0.015315 0.011901 -0.123524 -0.091747 0.179690 -0.010572 0.131929 0.099184 0.037510
希望 -0.004502 0.061540 -0.030779 0.008361 -0.048598 0.000594 0.085464 -0.164707 -0.008266 0.034827 0.125012 0.087765 -0.041103 -0.106506 0.024563 -0.008515 0.018493 0.033117 -0.092372 -0.054991 -0.108495 0.013383 0.130250 -0.092709 0.035339 -0.001979 0.066283 -0.041340 0.013264 0.015152 -0.008352 -0.001030 0.021122 -0.092497 -0.059818 0.111347 -0.015669 0.099573 0.053871 0.017284
逊 -0.020956 0.050228 -0.011449 0.010799 -0.035916 0.002791 0.058209 -0.142555 -0.017596 0.024814 0.099002 0.074387 -0.039312 -0.086273 0.014465 0.003646 0.018914 0.032137 -0.073111 -0.043909 -0.085313 0.011014 0.111712 -0.087267 0.020496 0.000628 0.053575 -0.035893 0.014838 0.010070 -0.000937 -0.006396 0.021659 -0.079750 -0.048574 0.105180 -0.017252 0.083994 0.043081 0.022126
但 -0.004388 0.079854 -0.017949 0.002170 -0.042968 -0.008611 0.077147 -0.178970 -0.008817 0.028062 0.130756 0.088638 -0.034497 -0.110513 0.041397 -0.018734 0.014492 0.021304 -0.103931 -0.051792 -0.120344 0.028366 0.152971 -0.103156 0.046272 0.001263 0.062071 -0.030289 0.014927 0.015614 -0.002802 -0.007289 0.015244 -0.099311 -0.069480 0.137083 -0.022460 0.104887 0.059409 0.026465
稍微 -0.024880 0.067818 -0.022057 0.010723 -0.040857 0.001193 0.075265 -0.189056 -0.005289 0.047639 0.130346 0.104619 -0.032285 -0.097874 0.040716 -0.013988 0.006956 0.024586 -0.117690 -0.042188 -0.113444 0.034623 0.149163 -0.091518 0.043623 -0.008917 0.083099 -0.042951 0.011340 0.029748 -0.007729 0.015069 0.018716 -0.088363 -0.071191 0.137773 -0.018911 0.108454 0.060024 0.028927
像 -0.010930 0.074206 -0.023746 0.002779 -0.056706 0.008034 0.093022 -0.187627 -0.014720 0.045586 0.141954 0.101555 -0.044868 -0.120268 0.036808 -0.015846 0.022598 0.022956 -0.126042 -0.050249 -0.114399 0.013587 0.165801 -0.111650 0.031267 0.009180 0.069287 -0.031836 0.024429 0.036111 0.009922 0.000737 0.030719 -0.112941 -0.076624 0.140966 -0.013754 0.101634 0.065189 0.027776
这个 -0.009173 0.045623 -0.023733 -0.009170 -0.033779 -0.007048 0.050023 -0.128602 -0.011376 0.028108 0.092031 0.065908 -0.027333 -0.061356 0.010964 0.001424 0.001751 0.013215 -0.086277 -0.029089 -0.064327 0.021186 0.094323 -0.068998 0.029419 -0.002262 0.049385 -0.020003 0.027444 0.026851 0.007353 0.014976 0.008414 -0.064119 -0.038123 0.084550 -0.000157 0.066185 0.041015 0.016356
塔 -0.024287 0.080988 -0.009383 0.014096 -0.056043 -0.007019 0.074556 -0.176642 -0.025419 0.039212 0.136258 0.088627 -0.043628 -0.113939 0.023689 -0.012041 0.001438 0.027598 -0.116702 -0.050753 -0.094392 0.022809 0.150125 -0.088069 0.029506 0.008279 0.063090 -0.046656 0.020423 0.025589 0.008269 0.011452 0.018609 -0.088472 -0.072925 0.132066 -0.028101 0.083782 0.065093 0.023003
句 -0.022680 0.102779 -0.028170 0.012402 -0.075256 0.013912 0.107413 -0.233423 -0.020446 0.044248 0.188771 0.112588 -0.051829 -0.134247 0.052031 -0.023758 0.014580 0.034498 -0.153416 -0.068582 -0.136375 0.035539 0.197483 -0.146658 0.065398 0.002156 0.105403 -0.054190 0.045108 0.024466 0.003510 0.015740 0.033148 -0.138879 -0.098149 0.179878 -0.031209 0.141403 0.080618 0.031473
话 -0.021946 0.083007 -0.014329 -0.004166 -0.048304 0.006332 0.087515 -0.201986 -0.028337 0.050583 0.148663 0.111390 -0.042179 -0.116328 0.044441 -0.019475 0.003841 0.046681 -0.120067 -0.067665 -0.134565 0.030551 0.168827 -0.116771 0.052446 0.012618 0.089654 -0.039900 0.017798 0.039661 0.005908 0.002117 0.024032 -0.123865 -0.081595 0.153747 -0.015326 0.115182 0.060981 0.032418
不要 -0.007466 0.042946 -0.015699 -0.002656 -0.037212 0.006843 0.059851 -0.114894 0.000432 0.018813 0.084003 0.045764 -0.023563 -0.066799 0.013047 -0.017834 0.009049 0.014141 -0.072026 -0.018815 -0.077892 0.016592 0.087267 -0.070438 0.034078 0.001263 0.037758 -0.022980 0.021245 0.004412 -0.010721 0.013381 0.002774 -0.063213 -0.047414 0.087489 -0.020834 0.055005 0.046653 0.019866
燃烧 -0.002151 0.076651 -0.019328 0.001479 -0.041176 -0.004295 0.065326 -0.149811 -0.013273 0.033252 0.120686 0.071497 -0.021576 -0.088259 0.025616 -0.008789 0.016290 0.035554 -0.094929 -0.032042 -0.102300 0.010298 0.129720 -0.097858 0.033324 -0.003793 0.063469 -0.025954 0.023809 0.018487 0.004066 -0.002913 0.013990 -0.094076 -0.075486 0.126746 -0.001798 0.096527 0.051863 0.032040
年 -0.025433 0.085899 -0.026558 0.013713 -0.063574 0.011227 0.092818 -0.187048 -0.018962 0.042324 0.149422 0.104275 -0.031105 -0.116838 0.024698 -0.011315 0.000507 0.033905 -0.114033 -0.047818 -0.112120 0.017409 0.166139 -0.119298 0.036877 -0.006962 0.070449 -0.044111 0.022233 0.025995 -0.008458 0.002255 0.013113 -0.105829 -0.067947 0.150373 -0.015628 0.098121 0.065701 0.034415
原来 -0.020472 0.071863 -0.030097 0.009104 -0.063375 -0.002961 0.084007 -0.196101 -0.030206 0.029925 0.149420 0.108003 -0.051896 -0.114501 0.023088 -0.007597 0.001375 0.035559 -0.123530 -0.058028 -0.122207 0.030870 0.152207 -0.116020 0.036095 0.008685 0.066236 -0.053365 0.031763 0.016477 0.014225 -0.002883 0.019849 -0.115511 -0.081575 0.146095 -0.005276 0.103203 0.057515 0.046565
吃 -0.022143 0.099201 -0.024776 0.009011 -0.051097 -0.009972 0.106809 -0.214581 -0.016753 0.049584 0.157426 0.113237 -0.050615 -0.117468 0.046551 -0.001618 0.005853 0.045611 -0.138447 -0.055716 -0.127463 0.041517 0.182193 -0.106622 0.040590 -0.003480 0.089607 -0.038212 0.024432 0.017511 0.015812 0.009358 0.009435 -0.123434 -0.069565 0.145781 -0.013854 0.103538 0.078173 0.043415
高三 -0.024290 0.102628 -0.034519 0.007752 -0.065863 -0.000296 0.112927 -0.230947 -0.020907 0.051783 0.177635 0.116888 -0.040304 -0.133812 0.030548 -0.022956 0.014080 0.046299 -0.146664 -0.076101 -0.153316 0.033082 0.208700 -0.139045 0.047788 -0.001318 0.097926 -0.064988 0.037300 0.023827 -0.002488 0.015273 0.022351 -0.130649 -0.097710 0.168365 -0.009866 0.125273 0.080969 0.036146
这种 -0.024218 0.075512 -0.023125 0.003250 -0.056995 0.011875 0.098896 -0.177113 -0.015629 0.046419 0.149346 0.107849 -0.032986 -0.114229 0.044957 -0.012678 0.024603 0.037866 -0.120337 -0.048429 -0.107737 0.017854 0.148525 -0.112742 0.042074 0.000484 0.064068 -0.035184 0.018129 0.024253 0.006612 0.016637 0.019085 -0.112300 -0.084284 0.133162 -0.018586 0.104767 0.058468 0.032923
下 -0.002694 0.073281 -0.021199 -0.008416 -0.036822 0.008689 0.085925 -0.178960 -0.019859 0.047342 0.122730 0.082386 -0.045206 -0.113409 0.023409 -0.007820 0.002645 0.026144 -0.121145 -0.044959 -0.113892 0.034752 0.141793 -0.104649 0.030773 -0.006766 0.066068 -0.050694 0.028704 0.017103 0.014927 0.002626 0.017661 -0.101855 -0.071372 0.135308 -0.012050 0.100048 0.055866 0.036564
热泪盈眶 -0.010012 0.060252 -0.007129 -0.004375 -0.026491 0.012551 0.055475 -0.142124 -0.005786 0.030900 0.101497 0.072368 -0.036114 -0.070430 0.018554 -0.002506 0.021818 0.036489 -0.082874 -0.038070 -0.077959 0.014701 0.123357 -0.071090 0.040693 0.003784 0.048160 -0.035543 0.019635 0.021884 0.003513 0.015893 0.004894 -0.080069 -0.050533 0.094791 -0.004418 0.076789 0.044813 0.020509
： -0.011945 0.063990 -0.023954 0.004066 -0.023941 -0.006054 0.069231 -0.141120 -0.000431 0.027475 0.092722 0.060932 -0.027737 -0.088044 0.023646 -0.005343 0.001245 0.018306 -0.084160 -0.038211 -0.088888 0.029358 0.101748 -0.072824 0.024913 -0.007182 0.050089 -0.038575 0.007450 0.013131 0.006010 0.015492 0.021689 -0.076727 -0.044621 0.096289 -0.005039 0.066595 0.057208 0.012757
剧情 -0.020343 0.060058 -0.020846 -0.007183 -0.047047 -0.010803 0.074733 -0.138119 -0.002639 0.034805 0.100354 0.070703 -0.022352 -0.091850 0.021894 0.003580 0.017348 0.037121 -0.081277 -0.037131 -0.079918 0.021882 0.110369 -0.083673 0.022466 0.009597 0.062362 -0.033804 0.021362 0.024964 0.007876 -0.003428 0.017527 -0.084067 -0.048369 0.106190 -0.022020 0.090894 0.048341 0.013843
网上 -0.028503 0.086040 -0.032180 0.004677 -0.055650 -0.004731 0.108905 -0.219039 -0.014065 0.042004 0.143349 0.108248 -0.056207 -0.132941 0.039800 -0.012223 0.012480 0.039381 -0.128225 -0.068866 -0.122931 0.018505 0.178547 -0.115600 0.053125 0.014580 0.073187 -0.042088 0.019773 0.023534 0.007645 0.007829 0.025126 -0.123105 -0.091831 0.151880 -0.023011 0.122983 0.078298 0.029130
只要 -0.019792 0.089462 -0.030045 0.007760 -0.050252 0.006847 0.079523 -0.185484 -0.011885 0.039880 0.154692 0.107557 -0.042130 -0.117812 0.035535 0.001406 0.011818 0.043541 -0.124995 -0.055401 -0.126878 0.032352 0.162123 -0.114334 0.045547 -0.006691 0.083568 -0.047223 0.024532 0.022421 -0.001547 0.000862 0.009804 -0.095727 -0.079407 0.145953 -0.007723 0.101093 0.065997 0.022333
道路 -0.006724 0.085019 -0.030743 0.006542 -0.064695 0.006538 0.105785 -0.200168 -0.032073 0.038921 0.165944 0.110850 -0.051153 -0.123532 0.030298 -0.016644 0.014016 0.027000 -0.122677 -0.058922 -0.129853 0.021999 0.179935 -0.121398 0.054051 -0.004958 0.072586 -0.038390 0.023893 0.035147 -0.004123 0.012282 0.020538 -0.106533 -0.086015 0.153053 -0.023494 0.114189 0.075413 0.028911
静 -0.007726 0.079101 -0.011245 -0.007820 -0.043128 0.005358 0.094249 -0.185922 -0.012776 0.033111 0.121131 0.087624 -0.036234 -0.104486 0.037167 -0.019856 0.019613 0.036023 -0.119380 -0.056779 -0.117131 0.022667 0.146101 -0.099008 0.039994 0.001506 0.075790 -0.045702 0.028766 0.031278 0.006156 -0.003212 0.004785 -0.108752 -0.080445 0.135314 -0.019215 0.095044 0.073961 0.038274
可以 -0.011203 0.074886 -0.012173 0.007360 -0.039823 -0.008234 0.098554 -0.178641 -0.004978 0.029829 0.125059 0.103610 -0.037198 -0.106313 0.037206 -0.001508 0.015354 0.037042 -0.112764 -0.056188 -0.121830 0.013748 0.155994 -0.106926 0.035874 0.003843 0.080325 -0.042288 0.012125 0.032386 -0.005739 0.001300 0.021654 -0.113496 -0.068213 0.142660 -0.026516 0.095945 0.069689 0.021579
年纪 -0.020796 0.066927 -0.011705 -0.000598 -0.036261 0.007985 0.080631 -0.167526 -0.025337 0.030510 0.124272 0.082704 -0.024222 -0.102692 0.023718 0.003733 -0.000663 0.029768 -0.101032 -0.043676 -0.096454 0.030363 0.130443 -0.101496 0.025018 0.003112 0.057019 -0.029593 0.030371 0.010376 -0.002303 0.004014 0.023030 -0.088271 -0.065925 0.115987 -0.019848 0.094273 0.059891 0.026601
这么 -0.017899 0.060568 -0.010751 0.001613 -0.038634 0.012527 0.079033 -0.164764 -0.015380 0.036619 0.136568 0.081130 -0.042232 -0.109436 0.035362 -0.009853 0.008741 0.025918 -0.109214 -0.034445 -0.098346 0.024323 0.134510 -0.086694 0.035821 -0.008638 0.078166 -0.038394 0.019833 0.035090 -0.000304 0.012554 0.017896 -0.091733 -0.072360 0.122610 -0.020095 0.103143 0.071328 0.036901
沉 -0.005544 0.081683 -0.017126 0.014330 -0.045662 0.012723 0.099535 -0.198525 -0.025092 0.040394 0.138687 0.085281 -0.037711 -0.100779 0.029475 -0.007123 0.016460 0.026113 -0.118007 -0.048360 -0.121329 0.018498 0.156093 -0.096735 0.035650 0.012813 0.080504 -0.044216 0.032193 0.026229 0.013672 -0.000377 0.024763 -0.110720 -0.081210 0.135311 -0.015147 0.117319 0.059643 0.040850
最后 -0.018972 0.074852 -0.007348 -0.007795 -0.035436 0.002005 0.060630 -0.160132 -0.019687 0.045591 0.121796 0.077771 -0.043510 -0.087456 0.028181 -0.019609 0.006061 0.013278 -0.085311 -0.051928 -0.101972 0.009443 0.122713 -0.092754 0.026959 0.010197 0.072711 -0.034291 0.029758 0.010115 -0.006972 0.012076 0.002157 -0.072261 -0.047967 0.102539 -0.012326 0.088053 0.059189 0.022580
与 -0.009312 0.076818 -0.009990 0.012817 -0.035924 -0.008042 0.081158 -0.156559 -0.024497 0.031110 0.126419 0.090508 -0.022923 -0.098065 0.033570 -0.020584 -0.001582 0.037031 -0.104611 -0.040035 -0.095326 0.032127 0.146139 -0.100498 0.043969 -0.002302 0.063633 -0.038135 0.021949 0.033460 -0.004797 0.007348 0.010464 -0.081775 -0.073818 0.129050 -0.005097 0.101264 0.062662 0.027324
没 -0.000899 0.061464 -0.026169 -0.000643 -0.042928 -0.003035 0.086215 -0.155999 -0.015141 0.025132 0.119854 0.074267 -0.034075 -0.100872 0.034688 -0.001045 0.015762 0.030217 -0.094954 -0.045876 -0.099519 0.014727 0.140607 -0.089694 0.025346 -0.008723 0.056645 -0.048581 0.024702 0.019640 0.001436 -0.002202 0.024972 -0.083251 -0.070807 0.107483 -0.011584 0.097506 0.048625 0.038359
莫 -0.021932 0.049478 -0.018162 0.001604 -0.030771 0.004792 0.065438 -0.120124 -0.017358 0.036485 0.106927 0.053421 -0.014455 -0.083909 0.026922 -0.003976 0.020807 0.027008 -0.072602 -0.029305 -0.073738 0.013689 0.103127 -0.084942 0.022817 -0.001622 0.042439 -0.021828 0.014401 0.023163 0.004737 -0.001529 0.021071 -0.064969 -0.047498 0.099336 -0.020644 0.083372 0.046881 0.015385
个 -0.018166 0.085882 -0.026359 0.008972 -0.046841 0.003725 0.083090 -0.188023 -0.014751 0.031610 0.141001 0.098484 -0.029124 -0.112868 0.036468 -0.008647 0.015636 0.019726 -0.123294 -0.037488 -0.114733 0.015388 0.156317 -0.089590 0.047827 0.005443 0.062396 -0.052012 0.033063 0.035018 0.001688 0.002527 0.019408 -0.091444 -0.074393 0.137513 -0.005964 0.106969 0.070204 0.027939
拉 -0.022588 0.068631 -0.013198 -0.002595 -0.056333 -0.004999 0.078915 -0.152104 -0.014054 0.043250 0.109736 0.086160 -0.041830 -0.096186 0.030723 0.000701 0.013870 0.036453 -0.110111 -0.054820 -0.098984 0.033656 0.132714 -0.093925 0.047305 -0.001303 0.072408 -0.049680 0.030240 0.018068 0.008886 -0.001728 0.011442 -0.098893 -0.062352 0.116136 -0.004054 0.093078 0.055722 0.039334
傻逼 -0.017294 0.040491 -0.019936 0.012574 -0.039882 0.005245 0.045612 -0.115364 0.002784 0.034408 0.080206 0.065219 -0.025831 -0.070686 0.016721 -0.017136 0.013530 0.012638 -0.065770 -0.041770 -0.069462 0.013903 0.089242 -0.070302 0.029831 -0.007058 0.058782 -0.037575 0.025055 0.025142 0.004978 0.004462 0.011677 -0.078532 -0.048091 0.081914 -0.013419 0.062677 0.053824 0.022601
给 -0.021573 0.087566 -0.026170 0.009669 -0.061934 0.007545 0.073880 -0.183803 -0.009382 0.030956 0.143551 0.092246 -0.027471 -0.102814 0.020874 -0.020352 0.018489 0.027992 -0.113356 -0.060894 -0.104301 0.019126 0.144767 -0.113784 0.044414 -0.010080 0.070164 -0.042624 0.014951 0.034274 -0.000173 0.005317 0.009153 -0.110990 -0.077774 0.128457 -0.004220 0.090103 0.063007 0.022768
有的 -0.016520 0.069008 -0.013372 0.004739 -0.055423 -0.009899 0.083142 -0.174275 -0.016527 0.035238 0.114363 0.080070 -0.030161 -0.096839 0.017308 -0.003959 0.009731 0.032632 -0.104155 -0.057380 -0.110242 0.014361 0.139329 -0.088927 0.044280 -0.003617 0.056089 -0.037608 0.030548 0.023694 0.001089 0.007637 0.018223 -0.088660 -0.069860 0.129104 -0.010307 0.101887 0.048636 0.036028
跟 -0.015185 0.064852 -0.014795 -0.000535 -0.047348 0.004689 0.075546 -0.183709 -0.021027 0.031248 0.130735 0.087665 -0.038427 -0.114056 0.034478 -0.018984 0.008131 0.029573 -0.111748 -0.041613 -0.109577 0.018582 0.148865 -0.114399 0.044119 -0.003966 0.078771 -0.032665 0.034615 0.031822 0.013563 0.003769 0.008965 -0.110640 -0.082973 0.144988 -0.024942 0.106182 0.060242 0.025476
拳王 -0.030373 0.088964 -0.031416 0.006422 -0.065253 -0.010114 0.101196 -0.229055 -0.014616 0.044828 0.157496 0.105842 -0.048021 -0.118788 0.041996 -0.016870 0.018124 0.036640 -0.130597 -0.073619 -0.146629 0.024626 0.196898 -0.122218 0.041370 0.010766 0.083636 -0.054418 0.021570 0.039534 0.008799 0.008291 0.024718 -0.131276 -0.075559 0.176069 -0.029012 0.115181 0.070064 0.037629
以后 -0.024725 0.090125 -0.026435 -0.001270 -0.044572 0.010282 0.105367 -0.219106 -0.010081 0.048378 0.142730 0.096685 -0.033012 -0.110894 0.040884 -0.018045 0.016693 0.022140 -0.126983 -0.044215 -0.116589 0.018386 0.172000 -0.127889 0.056866 0.011888 0.083745 -0.050602 0.039519 0.042028 -0.002358 0.013620 0.015246 -0.110403 -0.082752 0.154995 -0.019122 0.104243 0.061647 0.029143
走 -0.005761 0.089184 -0.030288 0.002362 -0.061080 0.008906 0.107521 -0.207232 -0.026589 0.051814 0.157222 0.108058 -0.042005 -0.133056 0.034585 -0.017778 0.020437 0.046970 -0.142933 -0.050324 -0.128364 0.039807 0.181017 -0.119872 0.047313 -0.002511 0.075094 -0.058732 0.037126 0.027797 0.004865 -0.002162 0.026858 -0.116588 -0.083856 0.171868 -0.009182 0.118700 0.085445 0.048694
却 -0.008715 0.120587 -0.019597 0.013588 -0.084037 0.009313 0.137707 -0.269879 -0.026848 0.060883 0.187939 0.145404 -0.065795 -0.147710 0.047969 -0.009492 0.006060 0.034594 -0.175002 -0.067898 -0.151186 0.047032 0.226037 -0.157003 0.055297 -0.006945 0.110490 -0.059035 0.047560 0.037556 0.008890 0.001489 0.036950 -0.142986 -0.100332 0.187329 -0.008833 0.159008 0.101549 0.034675
永远 -0.018310 0.075533 -0.016450 0.010478 -0.051846 -0.004409 0.096380 -0.210344 -0.031934 0.035810 0.166369 0.117280 -0.049318 -0.131759 0.043837 -0.015541 0.004673 0.033976 -0.118258 -0.051073 -0.114183 0.020915 0.174715 -0.119521 0.052129 0.004739 0.081887 -0.041201 0.026523 0.024571 0.002837 0.015662 0.011688 -0.113121 -0.070311 0.154939 -0.023597 0.127378 0.062777 0.045426
读 -0.012393 0.093565 -0.029917 0.000609 -0.055363 -0.004710 0.099156 -0.236750 -0.025920 0.059834 0.167865 0.129844 -0.061028 -0.127937 0.032069 -0.013969 0.016414 0.036888 -0.154222 -0.055201 -0.148219 0.024678 0.187897 -0.135146 0.059000 0.005322 0.102140 -0.048599 0.040377 0.031212 0.013304 -0.002678 0.031280 -0.134122 -0.100803 0.161675 -0.027459 0.119663 0.079981 0.039409
同学 -0.019633 0.074078 -0.014893 -0.005210 -0.059403 -0.007031 0.106581 -0.212590 -0.020170 0.044880 0.145195 0.092813 -0.046010 -0.119669 0.038887 -0.001987 0.018399 0.029093 -0.122218 -0.059759 -0.114509 0.020939 0.161243 -0.119358 0.041928 0.001399 0.072964 -0.052350 0.032070 0.032065 0.004991 -0.004650 0.014819 -0.120251 -0.076082 0.153704 -0.018336 0.106221 0.071750 0.039309
世界 -0.020947 0.080330 -0.016198 -0.002069 -0.057512 -0.008521 0.086723 -0.191310 -0.022085 0.036796 0.138198 0.094742 -0.033038 -0.106902 0.041957 -0.019728 0.018339 0.022767 -0.118628 -0.052035 -0.125007 0.034451 0.155937 -0.099358 0.044512 -0.001518 0.068409 -0.045116 0.036347 0.016142 -0.008585 -0.002138 0.021303 -0.099699 -0.068340 0.141058 -0.007685 0.120835 0.080602 0.041128
从来 -0.007093 0.090359 -0.017046 0.011425 -0.058574 -0.002522 0.101112 -0.216293 -0.024583 0.053940 0.160952 0.122658 -0.039748 -0.132815 0.043045 -0.012904 0.009044 0.029281 -0.137532 -0.060007 -0.139247 0.038143 0.198550 -0.134175 0.063210 -0.006314 0.087050 -0.037359 0.035411 0.038924 0.013946 0.013070 0.019170 -0.112488 -0.094730 0.154174 -0.026166 0.115093 0.091950 0.053012
已经 -0.021890 0.070398 -0.023087 0.012783 -0.054414 0.005614 0.074900 -0.187360 -0.025648 0.037718 0.123511 0.104544 -0.035697 -0.092445 0.021899 -0.004716 0.012537 0.038532 -0.106123 -0.037555 -0.115627 0.026835 0.149005 -0.092466 0.037044 -0.005470 0.061221 -0.046969 0.025591 0.032601 0.008047 -0.000364 0.024416 -0.087799 -0.059710 0.131414 -0.025446 0.095100 0.058118 0.031138
梦 -0.004864 0.060574 -0.026091 0.001945 -0.034243 0.013282 0.073460 -0.163829 -0.002958 0.028795 0.130147 0.078033 -0.035187 -0.089999 0.030259 -0.008984 0.016378 0.032828 -0.099264 -0.043664 -0.083691 0.021791 0.124505 -0.081548 0.036678 -0.004083 0.062683 -0.029555 0.018839 0.028372 0.013140 -0.000529 0.018979 -0.079592 -0.068891 0.122704 -0.005795 0.080292 0.045680 0.031139
喜欢 0.000025 0.058635 -0.002818 -0.005150 -0.038354 -0.000788 0.067295 -0.127222 -0.020544 0.034913 0.090860 0.063833 -0.031597 -0.077273 0.014890 -0.015832 0.016987 0.025611 -0.066816 -0.035952 -0.070620 0.013949 0.093279 -0.074303 0.015420 -0.006729 0.057972 -0.024594 0.014200 0.023571 -0.009171 -0.007195 0.020437 -0.067512 -0.035621 0.087842 -0.006469 0.056960 0.047861 0.026691
名校 -0.009846 0.086413 -0.020489 -0.001472 -0.066530 -0.007256 0.107485 -0.213930 -0.029122 0.050294 0.153675 0.104341 -0.054295 -0.115685 0.029164 -0.013847 0.020666 0.025126 -0.118158 -0.052816 -0.137673 0.033692 0.180858 -0.128794 0.038066 -0.007890 0.076809 -0.057831 0.020845 0.019166 0.004544 -0.003039 0.023699 -0.119369 -0.090217 0.164776 -0.019818 0.110283 0.072178 0.043136
辈子 -0.014238 0.051649 -0.017486 0.013727 -0.015214 0.012023 0.047761 -0.101514 -0.008195 0.025489 0.083008 0.040632 -0.018518 -0.053596 0.011408 -0.010439 -0.001849 0.020093 -0.060716 -0.032993 -0.052040 0.004373 0.075983 -0.059503 0.016115 -0.004112 0.038232 -0.016697 0.012594 0.015207 -0.006944 0.005658 0.007521 -0.044610 -0.037614 0.071163 -0.012987 0.046023 0.028582 0.027528
里 -0.018492 0.085503 -0.011144 -0.005751 -0.058233 0.005240 0.078865 -0.168452 -0.007622 0.047498 0.129919 0.080871 -0.028597 -0.109587 0.030102 -0.003132 0.022447 0.025586 -0.119029 -0.057516 -0.118071 0.032722 0.149217 -0.093091 0.032616 0.001399 0.070312 -0.045966 0.013645 0.027615 -0.006327 0.013952 0.020494 -0.094573 -0.075183 0.125792 -0.010124 0.096851 0.072561 0.032229
某 -0.018712 0.065638 -0.029718 -0.003694 -0.038392 -0.008055 0.085640 -0.185080 -0.010848 0.040864 0.130273 0.099584 -0.031138 -0.113833 0.045077 0.002458 0.024118 0.035884 -0.102147 -0.044450 -0.113270 0.014937 0.164949 -0.108224 0.034008 0.008033 0.078221 -0.035990 0.025973 0.024211 -0.003500 -0.000471 0.023929 -0.102764 -0.062588 0.140174 -0.012140 0.097393 0.071888 0.040216
下去 -0.025420 0.072839 -0.010496 -0.006175 -0.057313 0.008644 0.083712 -0.169209 -0.012044 0.048592 0.129177 0.098448 -0.028794 -0.105118 0.035215 0.001981 0.022886 0.021983 -0.108075 -0.035513 -0.116724 0.025741 0.148318 -0.090010 0.038640 -0.000471 0.062699 -0.046642 0.035524 0.025591 0.013089 -0.001471 0.025035 -0.085276 -0.068528 0.136109 -0.023541 0.094833 0.056928 0.026735
女孩 -0.026569 0.078395 -0.023315 -0.004893 -0.040276 0.014135 0.101053 -0.193211 -0.027937 0.047044 0.140997 0.105566 -0.048839 -0.105528 0.022075 -0.004052 0.019276 0.030294 -0.127311 -0.042263 -0.104331 0.016728 0.151264 -0.094994 0.040935 0.014587 0.083694 -0.046367 0.035159 0.032108 0.005784 0.000200 0.004786 -0.108122 -0.075108 0.155958 -0.008304 0.114289 0.071585 0.040275
死 -0.019387 0.071257 -0.010968 0.003482 -0.039192 0.004035 0.060510 -0.140991 -0.025822 0.023820 0.100037 0.075532 -0.032910 -0.092192 0.031584 -0.013716 0.013215 0.034510 -0.099706 -0.047159 -0.080419 0.013116 0.139768 -0.083068 0.046545 -0.008141 0.065245 -0.043345 0.011351 0.030416 -0.004288 0.003737 0.001894 -0.091838 -0.061128 0.124718 -0.004443 0.096474 0.043685 0.022722
