19 40
是 -0.061589 -0.147478 0.171131 0.053941 -0.052861 0.242879 -0.324619 -0.108432 -0.020649 -0.245223 -0.085173 0.230648 0.022009 -0.057031 0.105140 -0.006323 0.164070 -0.583841 0.094426 -0.297165 0.057631 0.041353 -0.194689 -0.010528 -0.087421 -0.029161 0.258366 0.076470 -0.062183 0.041965 0.125400 0.418221 0.202182 0.141716 -0.147246 -0.152963 -0.111949 0.112518 -0.039646 0.242667 
我 0.062505 -0.039756 -0.141267 0.157517 0.089359 0.039825 -0.418833 -0.123561 -0.136119 -0.054195 -0.113780 0.056987 0.095735 -0.150681 -0.080395 0.231677 -0.163032 -0.153276 0.010319 -0.064045 -0.168491 -0.035843 -0.067681 0.083281 -0.150967 0.012827 0.146017 0.264313 -0.404397 -0.057320 -0.077039 0.142451 0.093775 -0.003432 -0.167317 -0.031853 -0.059941 -0.231177 0.092822 0.319750 
了 -0.099644 -0.141682 -0.011519 0.100329 0.081942 0.181758 -0.389802 -0.353729 0.169108 -0.251979 -0.087138 0.074387 -0.136255 0.115912 -0.065097 0.263850 -0.081503 -0.332455 0.133340 0.022805 0.097844 0.178358 0.077184 -0.017520 -0.049975 -0.119354 0.263356 0.011623 -0.071492 0.122030 -0.043077 0.108592 0.167949 0.099862 -0.140521 -0.131192 -0.108813 -0.022595 -0.041087 0.231308 
不 -0.075286 -0.029435 0.101300 0.065631 0.138424 0.310838 -0.298456 -0.047066 -0.153582 -0.220510 -0.174412 0.106386 -0.138767 -0.247893 0.073450 0.012681 0.180162 -0.303307 0.116584 -0.058386 0.107927 -0.162270 -0.002400 0.020183 -0.212570 -0.018515 0.224416 -0.044255 -0.280122 0.090604 -0.014233 0.459436 0.177773 0.030007 -0.341246 -0.296263 0.065367 -0.054870 -0.050418 0.309860 
就 -0.083636 -0.064818 0.101066 -0.000752 0.012951 0.119942 -0.293487 -0.257199 -0.019181 -0.322234 -0.077135 0.131813 -0.161193 -0.033642 0.056047 0.136915 0.040172 -0.416184 0.007767 -0.053158 0.115272 0.005560 -0.067807 -0.001917 -0.124362 -0.054452 0.225087 0.147173 -0.134357 0.113257 -0.065461 0.175100 0.161612 0.078971 -0.175121 -0.089294 0.021276 0.019611 -0.061216 0.217054 
在 -0.288677 -0.183145 0.090763 0.182676 -0.050681 0.215639 -0.192870 -0.068373 -0.055394 -0.273820 -0.062508 0.036862 0.003532 0.119407 0.265050 0.173162 0.033369 -0.296893 0.243203 -0.249309 -0.105042 0.063982 -0.030016 0.031628 -0.059072 -0.163380 0.161690 0.011489 -0.009539 -0.231779 -0.293673 0.124159 0.326267 0.258859 -0.086799 -0.061145 -0.296450 0.301290 -0.222071 0.118732 
一 -0.039090 -0.506075 0.114530 -0.006471 0.093400 0.213048 -0.496982 -0.212223 0.106299 -0.448258 0.020374 0.472035 0.018935 0.117410 0.423642 0.077747 -0.166569 -0.304366 0.042191 0.099947 0.063066 -0.031382 0.085824 0.134093 0.191905 -0.015486 0.352582 0.194283 0.317059 0.086825 0.069735 -0.069935 0.269482 -0.241479 -0.028111 0.045096 -0.406138 -0.081718 0.285994 0.074077 
你 0.020871 0.045574 -0.048812 0.068523 0.092522 0.255331 -0.189266 -0.132393 -0.138516 -0.075440 -0.270618 0.203433 0.242890 -0.186471 -0.110851 0.141243 0.033232 -0.182284 -0.115724 0.204479 0.044111 -0.149647 -0.080505 0.158277 -0.346621 -0.057132 0.015362 0.180721 -0.314278 0.248842 -0.170292 0.309599 0.194807 0.107012 -0.121748 -0.064278 0.044709 -0.176286 0.173511 0.414932 
有 0.134032 -0.226870 0.006558 -0.059263 0.123623 0.264118 -0.242925 0.054265 -0.060178 -0.287644 0.131568 0.164840 0.082197 -0.048203 0.117438 0.039345 0.201978 -0.430791 0.057178 -0.306380 -0.082194 0.252816 -0.059902 0.177507 0.011084 -0.118093 0.082494 -0.071411 0.013462 0.088545 0.055861 0.236749 0.135083 0.000867 -0.426683 -0.135639 -0.239289 0.094361 0.079804 0.145590 
也 -0.020898 -0.134893 0.005289 0.025040 0.084589 0.244220 -0.276771 -0.066038 -0.093469 -0.247543 0.043717 0.023388 -0.166128 -0.073139 0.075107 -0.006947 0.087121 -0.345967 0.149414 -0.046402 -0.079548 0.050404 -0.018182 -0.066222 0.013207 -0.009919 0.311202 -0.142618 -0.202103 0.044938 -0.014902 0.301629 0.220523 0.067669 -0.298988 -0.234934 -0.052151 0.075745 -0.031979 0.296524 
他 -0.140929 -0.199358 -0.162741 0.166219 0.139957 0.204972 -0.358540 -0.186364 -0.060715 -0.075757 0.052078 0.073278 0.090424 -0.138320 0.049534 0.138080 -0.019372 -0.196200 0.142666 0.103051 -0.066175 -0.157820 0.001599 -0.103053 -0.099172 -0.067366 0.343062 0.053454 -0.165154 0.037539 -0.068987 0.253624 0.218881 0.418210 -0.026279 -0.158630 -0.148664 -0.026262 0.055254 0.555099 
都 -0.020049 -0.202439 0.082903 -0.046101 0.110168 0.321180 -0.222619 -0.140662 -0.262633 -0.233844 -0.000450 0.183140 -0.011181 -0.081175 0.073697 -0.074387 0.076197 -0.243373 0.090391 -0.054792 -0.045717 0.074503 -0.035630 0.141365 0.053850 0.081901 0.086197 0.074994 -0.215443 0.054763 -0.109343 0.289565 0.088886 0.102452 -0.300888 -0.250604 -0.135771 0.247613 -0.165946 0.233542 
人 0.039373 -0.161951 -0.169631 -0.055853 0.030262 0.257908 -0.286601 -0.100607 0.103561 -0.272618 0.053149 0.160699 -0.026691 -0.167245 0.008061 -0.032160 0.137153 -0.249043 -0.028132 -0.224877 0.078761 0.005073 0.076784 0.174279 -0.012499 -0.009187 -0.092467 0.011229 -0.263766 -0.154117 -0.024042 0.201570 0.126785 0.377658 -0.299853 -0.221903 -0.048861 0.280108 0.246987 0.569022 
说 0.128191 -0.049168 -0.033151 0.005399 0.036500 0.284479 -0.346696 0.046895 -0.090545 -0.200854 -0.111573 0.228493 -0.051814 -0.126514 0.118991 0.182502 0.140707 -0.437167 -0.016469 -0.192052 -0.321900 0.105632 -0.146702 0.039782 -0.106937 -0.025372 0.316141 0.157025 -0.303048 0.335988 0.021900 0.256496 0.215454 0.110983 -0.135993 0.400954 0.189719 -0.025297 0.097310 0.079117 
和 -0.194288 -0.433249 0.027585 -0.095728 -0.063789 0.385899 -0.143168 0.082841 -0.075737 -0.208044 0.024930 0.114625 0.118611 0.205956 0.085236 -0.039771 -0.013975 -0.296151 0.274812 -0.159353 -0.090652 0.193309 -0.218033 -0.010176 -0.131831 -0.096002 0.265813 -0.118674 0.025868 0.032306 0.095731 0.075461 0.454810 0.475127 -0.173517 -0.286241 -0.182053 0.053345 -0.231002 -0.000549 
这 -0.064707 -0.265066 0.212976 -0.066623 0.096687 0.251929 -0.509929 -0.199380 -0.048890 -0.351104 -0.029168 0.426109 0.012714 -0.037239 0.154565 0.141139 -0.122731 -0.504237 0.022008 -0.260495 0.026625 0.036531 -0.130680 0.068700 0.043293 0.072893 0.344534 0.125341 0.147807 -0.038859 0.056105 0.281463 0.203846 -0.162754 -0.069279 -0.027975 -0.205790 -0.044746 0.146611 0.240282 
会 -0.171894 -0.198095 -0.263660 -0.074148 0.121349 0.183256 -0.246491 -0.172611 -0.167985 -0.168567 -0.013701 -0.045056 -0.099032 0.061840 0.125656 0.119420 0.221973 -0.343891 0.146839 0.111077 0.134340 0.083101 -0.036222 -0.041159 -0.203767 -0.119950 -0.026462 0.006769 -0.254234 0.075175 -0.169015 0.428132 0.157346 0.114944 -0.294114 -0.184596 -0.113745 0.020661 0.069254 0.343933 
一个 -0.049566 -0.250495 0.059698 0.010560 -0.017119 0.067962 -0.070515 -0.133503 0.035203 -0.328376 0.069015 0.380483 0.236545 -0.043369 -0.010872 0.221294 0.161201 -0.450788 0.088217 -0.230333 0.165715 0.045961 -0.027717 -0.126402 -0.061680 -0.054168 0.115490 0.200331 -0.008742 0.013258 -0.084987 0.040733 0.238974 0.354309 -0.212085 -0.218110 -0.263271 0.244095 -0.094537 0.165069 
自己 -0.176499 -0.132349 -0.115628 0.211946 0.087699 0.298994 -0.185650 -0.281727 0.003895 0.034849 0.031169 0.121732 0.290988 -0.155438 0.028937 0.138776 0.075500 -0.211504 0.043744 0.173662 0.133458 -0.150872 -0.107945 -0.054902 -0.034667 -0.001677 0.153588 0.035311 -0.218366 -0.076185 -0.186768 0.129427 0.294005 0.402138 -0.148042 -0.479848 0.008342 -0.118236 0.102626 0.439353 